network "BarleyFungal" {
}
variable sort {
    type discrete [13] {sort_state0 sort_state1 sort_state2 sort_state3 sort_state4 sort_state5 sort_state6 sort_state7 sort_state8 sort_state9 sort_state10 sort_state11 sort_state12};
}
variable meldugm {
    type discrete [22] {meldugm_state0 meldugm_state1 meldugm_state2 meldugm_state3 meldugm_state4 meldugm_state5 meldugm_state6 meldugm_state7 meldugm_state8 meldugm_state9 meldugm_state10 meldugm_state11 meldugm_state12 meldugm_state13 meldugm_state14 meldugm_state15 meldugm_state16 meldugm_state17 meldugm_state18 meldugm_state19 meldugm_state20 meldugm_state21};
}
variable meldugsan {
    type discrete [11] {meldugsan_state0 meldugsan_state1 meldugsan_state2 meldugsan_state3 meldugsan_state4 meldugsan_state5 meldugsan_state6 meldugsan_state7 meldugsan_state8 meldugsan_state9 meldugsan_state10};
}
variable fungicid {
    type discrete [2] {fungicid_state0 fungicid_state1};
}
variable melduga {
    type discrete [17] {melduga_state0 melduga_state1 melduga_state2 melduga_state3 melduga_state4 melduga_state5 melduga_state6 melduga_state7 melduga_state8 melduga_state9 melduga_state10 melduga_state11 melduga_state12 melduga_state13 melduga_state14 melduga_state15 melduga_state16};
}
variable rustm {
    type discrete [12] {rustm_state0 rustm_state1 rustm_state2 rustm_state3 rustm_state4 rustm_state5 rustm_state6 rustm_state7 rustm_state8 rustm_state9 rustm_state10 rustm_state11};
}
variable rustan {
    type discrete [11] {rustan_state0 rustan_state1 rustan_state2 rustan_state3 rustan_state4 rustan_state5 rustan_state6 rustan_state7 rustan_state8 rustan_state9 rustan_state10};
}
variable rusta {
    type discrete [17] {rusta_state0 rusta_state1 rusta_state2 rusta_state3 rusta_state4 rusta_state5 rusta_state6 rusta_state7 rusta_state8 rusta_state9 rusta_state10 rusta_state11 rusta_state12 rusta_state13 rusta_state14 rusta_state15 rusta_state16};
}
variable areal {
    type discrete [17] {areal_state0 areal_state1 areal_state2 areal_state3 areal_state4 areal_state5 areal_state6 areal_state7 areal_state8 areal_state9 areal_state10 areal_state11 areal_state12 areal_state13 areal_state14 areal_state15 areal_state16};
}
variable slt22 {
    type discrete [4] {slt22_state0 slt22_state1 slt22_state2 slt22_state3};
}
variable s2225 {
    type discrete [4] {s2225_state0 s2225_state1 s2225_state2 s2225_state3};
}
variable s2528 {
    type discrete [20] {s2528_state0 s2528_state1 s2528_state2 s2528_state3 s2528_state4 s2528_state5 s2528_state6 s2528_state7 s2528_state8 s2528_state9 s2528_state10 s2528_state11 s2528_state12 s2528_state13 s2528_state14 s2528_state15 s2528_state16 s2528_state17 s2528_state18 s2528_state19};
}
variable gt25 {
    type discrete [4] {gt25_state0 gt25_state1 gt25_state2 gt25_state3};
}
variable lt22 {
    type discrete [4] {lt22_state0 lt22_state1 lt22_state2 lt22_state3};
}
variable udbrsv {
    type discrete [7] {udbrsv_state0 udbrsv_state1 udbrsv_state2 udbrsv_state3 udbrsv_state4 udbrsv_state5 udbrsv_state6};
}
probability ( sort ) {
    table 0.07692307692307691 0.07692307692307691 0.07692307692307691 0.07692307692307691 0.07692307692307691 0.07692307692307691 0.07692307692307691 0.07692307692307691 0.07692307692307691 0.07692307692307691 0.07692307692307691 0.07692307692307691 0.07692307692307691;
}
probability ( meldugm | sort ) {
    ( sort_state0 ) 0.9979044007584076 9.979044007584076e-05 9.979044007584076e-05 9.979044007584076e-05 9.979044007584076e-05 9.979044007584076e-05 9.979044007584076e-05 9.979044007584076e-05 9.979044007584076e-05 9.979044007584076e-05 9.979044007584076e-05 9.979044007584076e-05 9.979044007584076e-05 9.979044007584076e-05 9.979044007584076e-05 9.979044007584076e-05 9.979044007584076e-05 9.979044007584076e-05 9.979044007584076e-05 9.979044007584076e-05 9.979044007584076e-05 9.979044007584076e-05;
    ( sort_state1 ) 9.987016878058524e-05 9.987016878058524e-05 9.987016878058524e-05 9.987016878058524e-05 9.987016878058524e-05 9.987016878058524e-05 9.987016878058524e-05 9.987016878058524e-05 9.987016878058524e-05 0.007290522320982722 0.1134525117347448 0.3395585738539898 0.3333666233895935 0.1532008389094178 0.04214521122540697 0.00818935384000799 0.001298312194147608 0.0001997403375611705 9.987016878058524e-05 9.987016878058524e-05 9.987016878058524e-05 9.987016878058524e-05;
    ( sort_state2 ) 9.987016878058526e-05 9.987016878058526e-05 9.987016878058526e-05 9.987016878058526e-05 9.987016878058526e-05 9.987016878058526e-05 9.987016878058526e-05 9.987016878058526e-05 9.987016878058526e-05 9.987016878058526e-05 9.987016878058526e-05 0.002197143713172876 0.03894936582442825 0.1790672126235894 0.3112953160890842 0.267052831319285 0.1366223908918406 0.04773794067711976 0.01258364126635374 0.002696494557075802 0.0005992210126835115 9.987016878058526e-05;
    ( sort_state3 ) 9.987016878058526e-05 9.987016878058526e-05 9.987016878058526e-05 9.987016878058526e-05 9.987016878058526e-05 9.987016878058526e-05 9.987016878058526e-05 9.987016878058526e-05 0.0009987016878058525 0.05063417557175673 0.2831319284929592 0.3865974233496455 0.2057325476880056 0.05872365924298413 0.01108558873464496 0.001597922700489364 0.0001997403375611705 9.987016878058526e-05 9.987016878058526e-05 9.987016878058526e-05 9.987016878058526e-05 9.987016878058526e-05;
    ( sort_state4 ) 9.987016878058526e-05 9.987016878058526e-05 9.987016878058526e-05 9.987016878058526e-05 9.987016878058526e-05 9.987016878058526e-05 9.987016878058526e-05 0.0002996105063417558 0.03565365025466894 0.284629981024668 0.4169579546589434 0.2033356636372716 0.04913612304004795 0.007690002996105065 0.0008988315190252673 9.987016878058526e-05 9.987016878058526e-05 9.987016878058526e-05 9.987016878058526e-05 9.987016878058526e-05 9.987016878058526e-05 9.987016878058526e-05;
    ( sort_state5 ) 9.98302885095338e-05 9.98302885095338e-05 9.98302885095338e-05 9.98302885095338e-05 0.01806928222022562 0.5572526704602176 0.3879405011480483 0.03384246780473196 0.001197963462114405 9.98302885095338e-05 9.98302885095338e-05 9.98302885095338e-05 9.98302885095338e-05 9.98302885095338e-05 9.98302885095338e-05 9.98302885095338e-05 9.98302885095338e-05 9.98302885095338e-05 9.98302885095338e-05 9.98302885095338e-05 9.98302885095338e-05 9.98302885095338e-05;
    ( sort_state6 ) 0.9979044007584076 9.979044007584076e-05 9.979044007584076e-05 9.979044007584076e-05 9.979044007584076e-05 9.979044007584076e-05 9.979044007584076e-05 9.979044007584076e-05 9.979044007584076e-05 9.979044007584076e-05 9.979044007584076e-05 9.979044007584076e-05 9.979044007584076e-05 9.979044007584076e-05 9.979044007584076e-05 9.979044007584076e-05 9.979044007584076e-05 9.979044007584076e-05 9.979044007584076e-05 9.979044007584076e-05 9.979044007584076e-05 9.979044007584076e-05;
    ( sort_state7 ) 9.983028850953382e-05 9.983028850953382e-05 9.983028850953382e-05 0.6152540680842569 0.3776579814315664 0.005191175002495758 9.983028850953382e-05 9.983028850953382e-05 9.983028850953382e-05 9.983028850953382e-05 9.983028850953382e-05 9.983028850953382e-05 9.983028850953382e-05 9.983028850953382e-05 9.983028850953382e-05 9.983028850953382e-05 9.983028850953382e-05 9.983028850953382e-05 9.983028850953382e-05 9.983028850953382e-05 9.983028850953382e-05 9.983028850953382e-05;
    ( sort_state8 ) 0.9979044007584076 9.979044007584076e-05 9.979044007584076e-05 9.979044007584076e-05 9.979044007584076e-05 9.979044007584076e-05 9.979044007584076e-05 9.979044007584076e-05 9.979044007584076e-05 9.979044007584076e-05 9.979044007584076e-05 9.979044007584076e-05 9.979044007584076e-05 9.979044007584076e-05 9.979044007584076e-05 9.979044007584076e-05 9.979044007584076e-05 9.979044007584076e-05 9.979044007584076e-05 9.979044007584076e-05 9.979044007584076e-05 9.979044007584076e-05;
    ( sort_state9 ) 0.9979044007584076 9.979044007584076e-05 9.979044007584076e-05 9.979044007584076e-05 9.979044007584076e-05 9.979044007584076e-05 9.979044007584076e-05 9.979044007584076e-05 9.979044007584076e-05 9.979044007584076e-05 9.979044007584076e-05 9.979044007584076e-05 9.979044007584076e-05 9.979044007584076e-05 9.979044007584076e-05 9.979044007584076e-05 9.979044007584076e-05 9.979044007584076e-05 9.979044007584076e-05 9.979044007584076e-05 9.979044007584076e-05 9.979044007584076e-05;
    ( sort_state10 ) 9.983028850953382e-05 9.983028850953382e-05 9.983028850953382e-05 9.983028850953382e-05 9.983028850953382e-05 0.01717080962363982 0.4167914545273037 0.4673055805131278 0.08984725965858043 0.006888289907157833 0.0003993211540381353 9.983028850953382e-05 9.983028850953382e-05 9.983028850953382e-05 9.983028850953382e-05 9.983028850953382e-05 9.983028850953382e-05 9.983028850953382e-05 9.983028850953382e-05 9.983028850953382e-05 9.983028850953382e-05 9.983028850953382e-05;
    ( sort_state11 ) 9.984025559105434e-05 9.984025559105434e-05 9.984025559105434e-05 9.984025559105434e-05 9.984025559105434e-05 0.02715654952076678 0.4720447284345048 0.4246206070287541 0.06958865814696487 0.004792332268370608 0.0001996805111821087 9.984025559105434e-05 9.984025559105434e-05 9.984025559105434e-05 9.984025559105434e-05 9.984025559105434e-05 9.984025559105434e-05 9.984025559105434e-05 9.984025559105434e-05 9.984025559105434e-05 9.984025559105434e-05 9.984025559105434e-05;
    ( sort_state12 ) 0.9979044007584076 9.979044007584076e-05 9.979044007584076e-05 9.979044007584076e-05 9.979044007584076e-05 9.979044007584076e-05 9.979044007584076e-05 9.979044007584076e-05 9.979044007584076e-05 9.979044007584076e-05 9.979044007584076e-05 9.979044007584076e-05 9.979044007584076e-05 9.979044007584076e-05 9.979044007584076e-05 9.979044007584076e-05 9.979044007584076e-05 9.979044007584076e-05 9.979044007584076e-05 9.979044007584076e-05 9.979044007584076e-05 9.979044007584076e-05;
}
probability ( meldugsan ) {
    table 0.09090909090909093 0.09090909090909093 0.09090909090909093 0.09090909090909093 0.09090909090909093 0.09090909090909093 0.09090909090909093 0.09090909090909093 0.09090909090909093 0.09090909090909093 0.09090909090909093;
}
probability ( fungicid ) {
    table 0.5 0.5;
}
probability ( melduga | meldugm meldugsan fungicid ) {
    ( meldugm_state0 meldugsan_state0 fungicid_state0 ) 0.4992511233150275 0.4992511233150275 9.985022466300551e-05 9.985022466300551e-05 9.985022466300551e-05 9.985022466300551e-05 9.985022466300551e-05 9.985022466300551e-05 9.985022466300551e-05 9.985022466300551e-05 9.985022466300551e-05 9.985022466300551e-05 9.985022466300551e-05 9.985022466300551e-05 9.985022466300551e-05 9.985022466300551e-05 9.985022466300551e-05;
    ( meldugm_state0 meldugsan_state0 fungicid_state1 ) 0.4992511233150275 0.4992511233150275 9.985022466300551e-05 9.985022466300551e-05 9.985022466300551e-05 9.985022466300551e-05 9.985022466300551e-05 9.985022466300551e-05 9.985022466300551e-05 9.985022466300551e-05 9.985022466300551e-05 9.985022466300551e-05 9.985022466300551e-05 9.985022466300551e-05 9.985022466300551e-05 9.985022466300551e-05 9.985022466300551e-05;
    ( meldugm_state0 meldugsan_state1 fungicid_state0 ) 0.4992511233150275 0.4992511233150275 9.985022466300551e-05 9.985022466300551e-05 9.985022466300551e-05 9.985022466300551e-05 9.985022466300551e-05 9.985022466300551e-05 9.985022466300551e-05 9.985022466300551e-05 9.985022466300551e-05 9.985022466300551e-05 9.985022466300551e-05 9.985022466300551e-05 9.985022466300551e-05 9.985022466300551e-05 9.985022466300551e-05;
    ( meldugm_state0 meldugsan_state1 fungicid_state1 ) 0.4992511233150275 0.4992511233150275 9.985022466300551e-05 9.985022466300551e-05 9.985022466300551e-05 9.985022466300551e-05 9.985022466300551e-05 9.985022466300551e-05 9.985022466300551e-05 9.985022466300551e-05 9.985022466300551e-05 9.985022466300551e-05 9.985022466300551e-05 9.985022466300551e-05 9.985022466300551e-05 9.985022466300551e-05 9.985022466300551e-05;
    ( meldugm_state0 meldugsan_state2 fungicid_state0 ) 0.4992511233150275 0.4992511233150275 9.985022466300551e-05 9.985022466300551e-05 9.985022466300551e-05 9.985022466300551e-05 9.985022466300551e-05 9.985022466300551e-05 9.985022466300551e-05 9.985022466300551e-05 9.985022466300551e-05 9.985022466300551e-05 9.985022466300551e-05 9.985022466300551e-05 9.985022466300551e-05 9.985022466300551e-05 9.985022466300551e-05;
    ( meldugm_state0 meldugsan_state2 fungicid_state1 ) 0.4992511233150275 0.4992511233150275 9.985022466300551e-05 9.985022466300551e-05 9.985022466300551e-05 9.985022466300551e-05 9.985022466300551e-05 9.985022466300551e-05 9.985022466300551e-05 9.985022466300551e-05 9.985022466300551e-05 9.985022466300551e-05 9.985022466300551e-05 9.985022466300551e-05 9.985022466300551e-05 9.985022466300551e-05 9.985022466300551e-05;
    ( meldugm_state0 meldugsan_state3 fungicid_state0 ) 0.4992511233150275 0.4992511233150275 9.985022466300551e-05 9.985022466300551e-05 9.985022466300551e-05 9.985022466300551e-05 9.985022466300551e-05 9.985022466300551e-05 9.985022466300551e-05 9.985022466300551e-05 9.985022466300551e-05 9.985022466300551e-05 9.985022466300551e-05 9.985022466300551e-05 9.985022466300551e-05 9.985022466300551e-05 9.985022466300551e-05;
    ( meldugm_state0 meldugsan_state3 fungicid_state1 ) 0.4992511233150275 0.4992511233150275 9.985022466300551e-05 9.985022466300551e-05 9.985022466300551e-05 9.985022466300551e-05 9.985022466300551e-05 9.985022466300551e-05 9.985022466300551e-05 9.985022466300551e-05 9.985022466300551e-05 9.985022466300551e-05 9.985022466300551e-05 9.985022466300551e-05 9.985022466300551e-05 9.985022466300551e-05 9.985022466300551e-05;
    ( meldugm_state0 meldugsan_state4 fungicid_state0 ) 0.4992511233150275 0.4992511233150275 9.985022466300551e-05 9.985022466300551e-05 9.985022466300551e-05 9.985022466300551e-05 9.985022466300551e-05 9.985022466300551e-05 9.985022466300551e-05 9.985022466300551e-05 9.985022466300551e-05 9.985022466300551e-05 9.985022466300551e-05 9.985022466300551e-05 9.985022466300551e-05 9.985022466300551e-05 9.985022466300551e-05;
    ( meldugm_state0 meldugsan_state4 fungicid_state1 ) 0.4992511233150275 0.4992511233150275 9.985022466300551e-05 9.985022466300551e-05 9.985022466300551e-05 9.985022466300551e-05 9.985022466300551e-05 9.985022466300551e-05 9.985022466300551e-05 9.985022466300551e-05 9.985022466300551e-05 9.985022466300551e-05 9.985022466300551e-05 9.985022466300551e-05 9.985022466300551e-05 9.985022466300551e-05 9.985022466300551e-05;
    ( meldugm_state0 meldugsan_state5 fungicid_state0 ) 0.4992511233150275 0.4992511233150275 9.985022466300551e-05 9.985022466300551e-05 9.985022466300551e-05 9.985022466300551e-05 9.985022466300551e-05 9.985022466300551e-05 9.985022466300551e-05 9.985022466300551e-05 9.985022466300551e-05 9.985022466300551e-05 9.985022466300551e-05 9.985022466300551e-05 9.985022466300551e-05 9.985022466300551e-05 9.985022466300551e-05;
    ( meldugm_state0 meldugsan_state5 fungicid_state1 ) 0.4992511233150275 0.4992511233150275 9.985022466300551e-05 9.985022466300551e-05 9.985022466300551e-05 9.985022466300551e-05 9.985022466300551e-05 9.985022466300551e-05 9.985022466300551e-05 9.985022466300551e-05 9.985022466300551e-05 9.985022466300551e-05 9.985022466300551e-05 9.985022466300551e-05 9.985022466300551e-05 9.985022466300551e-05 9.985022466300551e-05;
    ( meldugm_state0 meldugsan_state6 fungicid_state0 ) 0.4992511233150275 0.4992511233150275 9.985022466300551e-05 9.985022466300551e-05 9.985022466300551e-05 9.985022466300551e-05 9.985022466300551e-05 9.985022466300551e-05 9.985022466300551e-05 9.985022466300551e-05 9.985022466300551e-05 9.985022466300551e-05 9.985022466300551e-05 9.985022466300551e-05 9.985022466300551e-05 9.985022466300551e-05 9.985022466300551e-05;
    ( meldugm_state0 meldugsan_state6 fungicid_state1 ) 0.4992511233150275 0.4992511233150275 9.985022466300551e-05 9.985022466300551e-05 9.985022466300551e-05 9.985022466300551e-05 9.985022466300551e-05 9.985022466300551e-05 9.985022466300551e-05 9.985022466300551e-05 9.985022466300551e-05 9.985022466300551e-05 9.985022466300551e-05 9.985022466300551e-05 9.985022466300551e-05 9.985022466300551e-05 9.985022466300551e-05;
    ( meldugm_state0 meldugsan_state7 fungicid_state0 ) 0.4992511233150275 0.4992511233150275 9.985022466300551e-05 9.985022466300551e-05 9.985022466300551e-05 9.985022466300551e-05 9.985022466300551e-05 9.985022466300551e-05 9.985022466300551e-05 9.985022466300551e-05 9.985022466300551e-05 9.985022466300551e-05 9.985022466300551e-05 9.985022466300551e-05 9.985022466300551e-05 9.985022466300551e-05 9.985022466300551e-05;
    ( meldugm_state0 meldugsan_state7 fungicid_state1 ) 0.4992511233150275 0.4992511233150275 9.985022466300551e-05 9.985022466300551e-05 9.985022466300551e-05 9.985022466300551e-05 9.985022466300551e-05 9.985022466300551e-05 9.985022466300551e-05 9.985022466300551e-05 9.985022466300551e-05 9.985022466300551e-05 9.985022466300551e-05 9.985022466300551e-05 9.985022466300551e-05 9.985022466300551e-05 9.985022466300551e-05;
    ( meldugm_state0 meldugsan_state8 fungicid_state0 ) 0.4992511233150275 0.4992511233150275 9.985022466300551e-05 9.985022466300551e-05 9.985022466300551e-05 9.985022466300551e-05 9.985022466300551e-05 9.985022466300551e-05 9.985022466300551e-05 9.985022466300551e-05 9.985022466300551e-05 9.985022466300551e-05 9.985022466300551e-05 9.985022466300551e-05 9.985022466300551e-05 9.985022466300551e-05 9.985022466300551e-05;
    ( meldugm_state0 meldugsan_state8 fungicid_state1 ) 0.4992511233150275 0.4992511233150275 9.985022466300551e-05 9.985022466300551e-05 9.985022466300551e-05 9.985022466300551e-05 9.985022466300551e-05 9.985022466300551e-05 9.985022466300551e-05 9.985022466300551e-05 9.985022466300551e-05 9.985022466300551e-05 9.985022466300551e-05 9.985022466300551e-05 9.985022466300551e-05 9.985022466300551e-05 9.985022466300551e-05;
    ( meldugm_state0 meldugsan_state9 fungicid_state0 ) 0.4992511233150275 0.4992511233150275 9.985022466300551e-05 9.985022466300551e-05 9.985022466300551e-05 9.985022466300551e-05 9.985022466300551e-05 9.985022466300551e-05 9.985022466300551e-05 9.985022466300551e-05 9.985022466300551e-05 9.985022466300551e-05 9.985022466300551e-05 9.985022466300551e-05 9.985022466300551e-05 9.985022466300551e-05 9.985022466300551e-05;
    ( meldugm_state0 meldugsan_state9 fungicid_state1 ) 0.4992511233150275 0.4992511233150275 9.985022466300551e-05 9.985022466300551e-05 9.985022466300551e-05 9.985022466300551e-05 9.985022466300551e-05 9.985022466300551e-05 9.985022466300551e-05 9.985022466300551e-05 9.985022466300551e-05 9.985022466300551e-05 9.985022466300551e-05 9.985022466300551e-05 9.985022466300551e-05 9.985022466300551e-05 9.985022466300551e-05;
    ( meldugm_state0 meldugsan_state10 fungicid_state0 ) 0.4992511233150275 0.4992511233150275 9.985022466300551e-05 9.985022466300551e-05 9.985022466300551e-05 9.985022466300551e-05 9.985022466300551e-05 9.985022466300551e-05 9.985022466300551e-05 9.985022466300551e-05 9.985022466300551e-05 9.985022466300551e-05 9.985022466300551e-05 9.985022466300551e-05 9.985022466300551e-05 9.985022466300551e-05 9.985022466300551e-05;
    ( meldugm_state0 meldugsan_state10 fungicid_state1 ) 0.4992511233150275 0.4992511233150275 9.985022466300551e-05 9.985022466300551e-05 9.985022466300551e-05 9.985022466300551e-05 9.985022466300551e-05 9.985022466300551e-05 9.985022466300551e-05 9.985022466300551e-05 9.985022466300551e-05 9.985022466300551e-05 9.985022466300551e-05 9.985022466300551e-05 9.985022466300551e-05 9.985022466300551e-05 9.985022466300551e-05;
    ( meldugm_state1 meldugsan_state0 fungicid_state0 ) 9.986019572598363e-05 9.986019572598363e-05 0.0007988815658078691 0.9222089075294588 0.07559416816456961 9.986019572598363e-05 9.986019572598363e-05 9.986019572598363e-05 9.986019572598363e-05 9.986019572598363e-05 9.986019572598363e-05 9.986019572598363e-05 9.986019572598363e-05 9.986019572598363e-05 9.986019572598363e-05 9.986019572598363e-05 9.986019572598363e-05;
    ( meldugm_state1 meldugsan_state0 fungicid_state1 ) 9.984025559105434e-05 0.9984025559105433 9.984025559105434e-05 9.984025559105434e-05 9.984025559105434e-05 9.984025559105434e-05 9.984025559105434e-05 9.984025559105434e-05 9.984025559105434e-05 9.984025559105434e-05 9.984025559105434e-05 9.984025559105434e-05 9.984025559105434e-05 9.984025559105434e-05 9.984025559105434e-05 9.984025559105434e-05 9.984025559105434e-05;
    ( meldugm_state1 meldugsan_state1 fungicid_state0 ) 9.986019572598363e-05 9.986019572598363e-05 0.03215498302376673 0.9662472538446176 0.0001997203914519673 9.986019572598363e-05 9.986019572598363e-05 9.986019572598363e-05 9.986019572598363e-05 9.986019572598363e-05 9.986019572598363e-05 9.986019572598363e-05 9.986019572598363e-05 9.986019572598363e-05 9.986019572598363e-05 9.986019572598363e-05 9.986019572598363e-05;
    ( meldugm_state1 meldugsan_state1 fungicid_state1 ) 9.984025559105434e-05 0.9984025559105433 9.984025559105434e-05 9.984025559105434e-05 9.984025559105434e-05 9.984025559105434e-05 9.984025559105434e-05 9.984025559105434e-05 9.984025559105434e-05 9.984025559105434e-05 9.984025559105434e-05 9.984025559105434e-05 9.984025559105434e-05 9.984025559105434e-05 9.984025559105434e-05 9.984025559105434e-05 9.984025559105434e-05;
    ( meldugm_state1 meldugsan_state2 fungicid_state0 ) 9.985022466300551e-05 9.985022466300551e-05 0.1174238642036945 0.8810783824263605 9.985022466300551e-05 9.985022466300551e-05 9.985022466300551e-05 9.985022466300551e-05 9.985022466300551e-05 9.985022466300551e-05 9.985022466300551e-05 9.985022466300551e-05 9.985022466300551e-05 9.985022466300551e-05 9.985022466300551e-05 9.985022466300551e-05 9.985022466300551e-05;
    ( meldugm_state1 meldugsan_state2 fungicid_state1 ) 9.984025559105434e-05 0.9984025559105433 9.984025559105434e-05 9.984025559105434e-05 9.984025559105434e-05 9.984025559105434e-05 9.984025559105434e-05 9.984025559105434e-05 9.984025559105434e-05 9.984025559105434e-05 9.984025559105434e-05 9.984025559105434e-05 9.984025559105434e-05 9.984025559105434e-05 9.984025559105434e-05 9.984025559105434e-05 9.984025559105434e-05;
    ( meldugm_state1 meldugsan_state3 fungicid_state0 ) 9.985022466300551e-05 9.985022466300551e-05 0.3414877683474788 0.6570144782825762 9.985022466300551e-05 9.985022466300551e-05 9.985022466300551e-05 9.985022466300551e-05 9.985022466300551e-05 9.985022466300551e-05 9.985022466300551e-05 9.985022466300551e-05 9.985022466300551e-05 9.985022466300551e-05 9.985022466300551e-05 9.985022466300551e-05 9.985022466300551e-05;
    ( meldugm_state1 meldugsan_state3 fungicid_state1 ) 9.984025559105434e-05 0.9984025559105433 9.984025559105434e-05 9.984025559105434e-05 9.984025559105434e-05 9.984025559105434e-05 9.984025559105434e-05 9.984025559105434e-05 9.984025559105434e-05 9.984025559105434e-05 9.984025559105434e-05 9.984025559105434e-05 9.984025559105434e-05 9.984025559105434e-05 9.984025559105434e-05 9.984025559105434e-05 9.984025559105434e-05;
    ( meldugm_state1 meldugsan_state4 fungicid_state0 ) 9.985022466300551e-05 9.985022466300551e-05 0.6989515726410385 0.2995506739890165 9.985022466300551e-05 9.985022466300551e-05 9.985022466300551e-05 9.985022466300551e-05 9.985022466300551e-05 9.985022466300551e-05 9.985022466300551e-05 9.985022466300551e-05 9.985022466300551e-05 9.985022466300551e-05 9.985022466300551e-05 9.985022466300551e-05 9.985022466300551e-05;
    ( meldugm_state1 meldugsan_state4 fungicid_state1 ) 9.984025559105434e-05 0.9984025559105433 9.984025559105434e-05 9.984025559105434e-05 9.984025559105434e-05 9.984025559105434e-05 9.984025559105434e-05 9.984025559105434e-05 9.984025559105434e-05 9.984025559105434e-05 9.984025559105434e-05 9.984025559105434e-05 9.984025559105434e-05 9.984025559105434e-05 9.984025559105434e-05 9.984025559105434e-05 9.984025559105434e-05;
    ( meldugm_state1 meldugsan_state5 fungicid_state0 ) 9.985022466300551e-05 9.985022466300551e-05 0.9496754867698453 0.04882675986020969 9.985022466300551e-05 9.985022466300551e-05 9.985022466300551e-05 9.985022466300551e-05 9.985022466300551e-05 9.985022466300551e-05 9.985022466300551e-05 9.985022466300551e-05 9.985022466300551e-05 9.985022466300551e-05 9.985022466300551e-05 9.985022466300551e-05 9.985022466300551e-05;
    ( meldugm_state1 meldugsan_state5 fungicid_state1 ) 9.984025559105434e-05 0.9984025559105433 9.984025559105434e-05 9.984025559105434e-05 9.984025559105434e-05 9.984025559105434e-05 9.984025559105434e-05 9.984025559105434e-05 9.984025559105434e-05 9.984025559105434e-05 9.984025559105434e-05 9.984025559105434e-05 9.984025559105434e-05 9.984025559105434e-05 9.984025559105434e-05 9.984025559105434e-05 9.984025559105434e-05;
    ( meldugm_state1 meldugsan_state6 fungicid_state0 ) 9.985022466300551e-05 9.985022466300551e-05 0.997403894158762 0.001098352471293061 9.985022466300551e-05 9.985022466300551e-05 9.985022466300551e-05 9.985022466300551e-05 9.985022466300551e-05 9.985022466300551e-05 9.985022466300551e-05 9.985022466300551e-05 9.985022466300551e-05 9.985022466300551e-05 9.985022466300551e-05 9.985022466300551e-05 9.985022466300551e-05;
    ( meldugm_state1 meldugsan_state6 fungicid_state1 ) 9.984025559105434e-05 0.9984025559105433 9.984025559105434e-05 9.984025559105434e-05 9.984025559105434e-05 9.984025559105434e-05 9.984025559105434e-05 9.984025559105434e-05 9.984025559105434e-05 9.984025559105434e-05 9.984025559105434e-05 9.984025559105434e-05 9.984025559105434e-05 9.984025559105434e-05 9.984025559105434e-05 9.984025559105434e-05 9.984025559105434e-05;
    ( meldugm_state1 meldugsan_state7 fungicid_state0 ) 9.984025559105434e-05 9.984025559105434e-05 0.9984025559105433 9.984025559105434e-05 9.984025559105434e-05 9.984025559105434e-05 9.984025559105434e-05 9.984025559105434e-05 9.984025559105434e-05 9.984025559105434e-05 9.984025559105434e-05 9.984025559105434e-05 9.984025559105434e-05 9.984025559105434e-05 9.984025559105434e-05 9.984025559105434e-05 9.984025559105434e-05;
    ( meldugm_state1 meldugsan_state7 fungicid_state1 ) 9.984025559105434e-05 0.9984025559105433 9.984025559105434e-05 9.984025559105434e-05 9.984025559105434e-05 9.984025559105434e-05 9.984025559105434e-05 9.984025559105434e-05 9.984025559105434e-05 9.984025559105434e-05 9.984025559105434e-05 9.984025559105434e-05 9.984025559105434e-05 9.984025559105434e-05 9.984025559105434e-05 9.984025559105434e-05 9.984025559105434e-05;
    ( meldugm_state1 meldugsan_state8 fungicid_state0 ) 9.984025559105434e-05 9.984025559105434e-05 0.9984025559105433 9.984025559105434e-05 9.984025559105434e-05 9.984025559105434e-05 9.984025559105434e-05 9.984025559105434e-05 9.984025559105434e-05 9.984025559105434e-05 9.984025559105434e-05 9.984025559105434e-05 9.984025559105434e-05 9.984025559105434e-05 9.984025559105434e-05 9.984025559105434e-05 9.984025559105434e-05;
    ( meldugm_state1 meldugsan_state8 fungicid_state1 ) 9.984025559105434e-05 0.9984025559105433 9.984025559105434e-05 9.984025559105434e-05 9.984025559105434e-05 9.984025559105434e-05 9.984025559105434e-05 9.984025559105434e-05 9.984025559105434e-05 9.984025559105434e-05 9.984025559105434e-05 9.984025559105434e-05 9.984025559105434e-05 9.984025559105434e-05 9.984025559105434e-05 9.984025559105434e-05 9.984025559105434e-05;
    ( meldugm_state1 meldugsan_state9 fungicid_state0 ) 9.985022466300551e-05 0.006689965052421369 0.9918122815776337 9.985022466300551e-05 9.985022466300551e-05 9.985022466300551e-05 9.985022466300551e-05 9.985022466300551e-05 9.985022466300551e-05 9.985022466300551e-05 9.985022466300551e-05 9.985022466300551e-05 9.985022466300551e-05 9.985022466300551e-05 9.985022466300551e-05 9.985022466300551e-05 9.985022466300551e-05;
    ( meldugm_state1 meldugsan_state9 fungicid_state1 ) 9.984025559105434e-05 0.9984025559105433 9.984025559105434e-05 9.984025559105434e-05 9.984025559105434e-05 9.984025559105434e-05 9.984025559105434e-05 9.984025559105434e-05 9.984025559105434e-05 9.984025559105434e-05 9.984025559105434e-05 9.984025559105434e-05 9.984025559105434e-05 9.984025559105434e-05 9.984025559105434e-05 9.984025559105434e-05 9.984025559105434e-05;
    ( meldugm_state1 meldugsan_state10 fungicid_state0 ) 9.984025559105434e-05 0.9984025559105433 9.984025559105434e-05 9.984025559105434e-05 9.984025559105434e-05 9.984025559105434e-05 9.984025559105434e-05 9.984025559105434e-05 9.984025559105434e-05 9.984025559105434e-05 9.984025559105434e-05 9.984025559105434e-05 9.984025559105434e-05 9.984025559105434e-05 9.984025559105434e-05 9.984025559105434e-05 9.984025559105434e-05;
    ( meldugm_state1 meldugsan_state10 fungicid_state1 ) 9.984025559105434e-05 0.9984025559105433 9.984025559105434e-05 9.984025559105434e-05 9.984025559105434e-05 9.984025559105434e-05 9.984025559105434e-05 9.984025559105434e-05 9.984025559105434e-05 9.984025559105434e-05 9.984025559105434e-05 9.984025559105434e-05 9.984025559105434e-05 9.984025559105434e-05 9.984025559105434e-05 9.984025559105434e-05 9.984025559105434e-05;
    ( meldugm_state2 meldugsan_state0 fungicid_state0 ) 9.986019572598363e-05 9.986019572598363e-05 9.986019572598363e-05 9.986019572598363e-05 0.07709207110045938 0.8459157179948074 0.07559416816456961 9.986019572598363e-05 9.986019572598363e-05 9.986019572598363e-05 9.986019572598363e-05 9.986019572598363e-05 9.986019572598363e-05 9.986019572598363e-05 9.986019572598363e-05 9.986019572598363e-05 9.986019572598363e-05;
    ( meldugm_state2 meldugsan_state0 fungicid_state1 ) 9.985022466300551e-05 0.4992511233150275 0.4992511233150275 9.985022466300551e-05 9.985022466300551e-05 9.985022466300551e-05 9.985022466300551e-05 9.985022466300551e-05 9.985022466300551e-05 9.985022466300551e-05 9.985022466300551e-05 9.985022466300551e-05 9.985022466300551e-05 9.985022466300551e-05 9.985022466300551e-05 9.985022466300551e-05 9.985022466300551e-05;
    ( meldugm_state2 meldugsan_state1 fungicid_state0 ) 9.987016878058526e-05 9.987016878058526e-05 9.987016878058526e-05 0.0006990911814640968 0.5731548986317787 0.4246479576550485 0.0001997403375611705 9.987016878058526e-05 9.987016878058526e-05 9.987016878058526e-05 9.987016878058526e-05 9.987016878058526e-05 9.987016878058526e-05 9.987016878058526e-05 9.987016878058526e-05 9.987016878058526e-05 9.987016878058526e-05;
    ( meldugm_state2 meldugsan_state1 fungicid_state1 ) 9.985022466300551e-05 0.4992511233150275 0.4992511233150275 9.985022466300551e-05 9.985022466300551e-05 9.985022466300551e-05 9.985022466300551e-05 9.985022466300551e-05 9.985022466300551e-05 9.985022466300551e-05 9.985022466300551e-05 9.985022466300551e-05 9.985022466300551e-05 9.985022466300551e-05 9.985022466300551e-05 9.985022466300551e-05 9.985022466300551e-05;
    ( meldugm_state2 meldugsan_state2 fungicid_state0 ) 9.986019572598363e-05 9.986019572598363e-05 9.986019572598363e-05 0.003994407829039345 0.8401238266427004 0.1544837227880967 9.986019572598363e-05 9.986019572598363e-05 9.986019572598363e-05 9.986019572598363e-05 9.986019572598363e-05 9.986019572598363e-05 9.986019572598363e-05 9.986019572598363e-05 9.986019572598363e-05 9.986019572598363e-05 9.986019572598363e-05;
    ( meldugm_state2 meldugsan_state2 fungicid_state1 ) 9.985022466300551e-05 0.4992511233150275 0.4992511233150275 9.985022466300551e-05 9.985022466300551e-05 9.985022466300551e-05 9.985022466300551e-05 9.985022466300551e-05 9.985022466300551e-05 9.985022466300551e-05 9.985022466300551e-05 9.985022466300551e-05 9.985022466300551e-05 9.985022466300551e-05 9.985022466300551e-05 9.985022466300551e-05 9.985022466300551e-05;
    ( meldugm_state2 meldugsan_state3 fungicid_state0 ) 9.987016878058526e-05 9.987016878058526e-05 9.987016878058526e-05 0.0223709178068511 0.9530610206731251 0.02316987915709578 9.987016878058526e-05 9.987016878058526e-05 9.987016878058526e-05 9.987016878058526e-05 9.987016878058526e-05 9.987016878058526e-05 9.987016878058526e-05 9.987016878058526e-05 9.987016878058526e-05 9.987016878058526e-05 9.987016878058526e-05;
    ( meldugm_state2 meldugsan_state3 fungicid_state1 ) 9.985022466300551e-05 0.4992511233150275 0.4992511233150275 9.985022466300551e-05 9.985022466300551e-05 9.985022466300551e-05 9.985022466300551e-05 9.985022466300551e-05 9.985022466300551e-05 9.985022466300551e-05 9.985022466300551e-05 9.985022466300551e-05 9.985022466300551e-05 9.985022466300551e-05 9.985022466300551e-05 9.985022466300551e-05 9.985022466300551e-05;
    ( meldugm_state2 meldugsan_state4 fungicid_state0 ) 9.986019572598363e-05 9.986019572598363e-05 9.986019572598363e-05 0.1092470541242261 0.8885560215698024 0.0007988815658078691 9.986019572598363e-05 9.986019572598363e-05 9.986019572598363e-05 9.986019572598363e-05 9.986019572598363e-05 9.986019572598363e-05 9.986019572598363e-05 9.986019572598363e-05 9.986019572598363e-05 9.986019572598363e-05 9.986019572598363e-05;
    ( meldugm_state2 meldugsan_state4 fungicid_state1 ) 9.985022466300551e-05 0.4992511233150275 0.4992511233150275 9.985022466300551e-05 9.985022466300551e-05 9.985022466300551e-05 9.985022466300551e-05 9.985022466300551e-05 9.985022466300551e-05 9.985022466300551e-05 9.985022466300551e-05 9.985022466300551e-05 9.985022466300551e-05 9.985022466300551e-05 9.985022466300551e-05 9.985022466300551e-05 9.985022466300551e-05;
    ( meldugm_state2 meldugsan_state5 fungicid_state0 ) 9.985022466300551e-05 9.985022466300551e-05 9.985022466300551e-05 0.3866200698951573 0.6118821767348978 9.985022466300551e-05 9.985022466300551e-05 9.985022466300551e-05 9.985022466300551e-05 9.985022466300551e-05 9.985022466300551e-05 9.985022466300551e-05 9.985022466300551e-05 9.985022466300551e-05 9.985022466300551e-05 9.985022466300551e-05 9.985022466300551e-05;
    ( meldugm_state2 meldugsan_state5 fungicid_state1 ) 9.985022466300551e-05 0.4992511233150275 0.4992511233150275 9.985022466300551e-05 9.985022466300551e-05 9.985022466300551e-05 9.985022466300551e-05 9.985022466300551e-05 9.985022466300551e-05 9.985022466300551e-05 9.985022466300551e-05 9.985022466300551e-05 9.985022466300551e-05 9.985022466300551e-05 9.985022466300551e-05 9.985022466300551e-05 9.985022466300551e-05;
    ( meldugm_state2 meldugsan_state6 fungicid_state0 ) 9.986019572598363e-05 9.986019572598363e-05 0.0002995805871779509 0.8101657679249052 0.1881366087477532 9.986019572598363e-05 9.986019572598363e-05 9.986019572598363e-05 9.986019572598363e-05 9.986019572598363e-05 9.986019572598363e-05 9.986019572598363e-05 9.986019572598363e-05 9.986019572598363e-05 9.986019572598363e-05 9.986019572598363e-05 9.986019572598363e-05;
    ( meldugm_state2 meldugsan_state6 fungicid_state1 ) 9.985022466300551e-05 0.4992511233150275 0.4992511233150275 9.985022466300551e-05 9.985022466300551e-05 9.985022466300551e-05 9.985022466300551e-05 9.985022466300551e-05 9.985022466300551e-05 9.985022466300551e-05 9.985022466300551e-05 9.985022466300551e-05 9.985022466300551e-05 9.985022466300551e-05 9.985022466300551e-05 9.985022466300551e-05 9.985022466300551e-05;
    ( meldugm_state2 meldugsan_state7 fungicid_state0 ) 9.986019572598363e-05 9.986019572598363e-05 0.004993009786299182 0.9848212502496506 0.008787697223886561 9.986019572598363e-05 9.986019572598363e-05 9.986019572598363e-05 9.986019572598363e-05 9.986019572598363e-05 9.986019572598363e-05 9.986019572598363e-05 9.986019572598363e-05 9.986019572598363e-05 9.986019572598363e-05 9.986019572598363e-05 9.986019572598363e-05;
    ( meldugm_state2 meldugsan_state7 fungicid_state1 ) 9.985022466300551e-05 0.4992511233150275 0.4992511233150275 9.985022466300551e-05 9.985022466300551e-05 9.985022466300551e-05 9.985022466300551e-05 9.985022466300551e-05 9.985022466300551e-05 9.985022466300551e-05 9.985022466300551e-05 9.985022466300551e-05 9.985022466300551e-05 9.985022466300551e-05 9.985022466300551e-05 9.985022466300551e-05 9.985022466300551e-05;
    ( meldugm_state2 meldugsan_state8 fungicid_state0 ) 9.986019572598363e-05 9.986019572598363e-05 0.0810864789294987 0.9174156181346116 9.986019572598363e-05 9.986019572598363e-05 9.986019572598363e-05 9.986019572598363e-05 9.986019572598363e-05 9.986019572598363e-05 9.986019572598363e-05 9.986019572598363e-05 9.986019572598363e-05 9.986019572598363e-05 9.986019572598363e-05 9.986019572598363e-05 9.986019572598363e-05;
    ( meldugm_state2 meldugsan_state8 fungicid_state1 ) 9.985022466300551e-05 0.4992511233150275 0.4992511233150275 9.985022466300551e-05 9.985022466300551e-05 9.985022466300551e-05 9.985022466300551e-05 9.985022466300551e-05 9.985022466300551e-05 9.985022466300551e-05 9.985022466300551e-05 9.985022466300551e-05 9.985022466300551e-05 9.985022466300551e-05 9.985022466300551e-05 9.985022466300551e-05 9.985022466300551e-05;
    ( meldugm_state2 meldugsan_state9 fungicid_state0 ) 9.985022466300551e-05 9.985022466300551e-05 0.9004493260109837 0.09805292061907141 9.985022466300551e-05 9.985022466300551e-05 9.985022466300551e-05 9.985022466300551e-05 9.985022466300551e-05 9.985022466300551e-05 9.985022466300551e-05 9.985022466300551e-05 9.985022466300551e-05 9.985022466300551e-05 9.985022466300551e-05 9.985022466300551e-05 9.985022466300551e-05;
    ( meldugm_state2 meldugsan_state9 fungicid_state1 ) 9.985022466300551e-05 0.4992511233150275 0.4992511233150275 9.985022466300551e-05 9.985022466300551e-05 9.985022466300551e-05 9.985022466300551e-05 9.985022466300551e-05 9.985022466300551e-05 9.985022466300551e-05 9.985022466300551e-05 9.985022466300551e-05 9.985022466300551e-05 9.985022466300551e-05 9.985022466300551e-05 9.985022466300551e-05 9.985022466300551e-05;
    ( meldugm_state2 meldugsan_state10 fungicid_state0 ) 9.985022466300551e-05 0.5140289565651524 0.4844732900649028 9.985022466300551e-05 9.985022466300551e-05 9.985022466300551e-05 9.985022466300551e-05 9.985022466300551e-05 9.985022466300551e-05 9.985022466300551e-05 9.985022466300551e-05 9.985022466300551e-05 9.985022466300551e-05 9.985022466300551e-05 9.985022466300551e-05 9.985022466300551e-05 9.985022466300551e-05;
    ( meldugm_state2 meldugsan_state10 fungicid_state1 ) 9.985022466300551e-05 0.4992511233150275 0.4992511233150275 9.985022466300551e-05 9.985022466300551e-05 9.985022466300551e-05 9.985022466300551e-05 9.985022466300551e-05 9.985022466300551e-05 9.985022466300551e-05 9.985022466300551e-05 9.985022466300551e-05 9.985022466300551e-05 9.985022466300551e-05 9.985022466300551e-05 9.985022466300551e-05 9.985022466300551e-05;
    ( meldugm_state3 meldugsan_state0 fungicid_state0 ) 9.986019572598363e-05 9.986019572598363e-05 9.986019572598363e-05 9.986019572598363e-05 9.986019572598363e-05 0.008687837028160575 0.9143199520671061 0.07559416816456961 9.986019572598363e-05 9.986019572598363e-05 9.986019572598363e-05 9.986019572598363e-05 9.986019572598363e-05 9.986019572598363e-05 9.986019572598363e-05 9.986019572598363e-05 9.986019572598363e-05;
    ( meldugm_state3 meldugsan_state0 fungicid_state1 ) 9.985022466300551e-05 0.0003994008986520221 0.9981028457314031 9.985022466300551e-05 9.985022466300551e-05 9.985022466300551e-05 9.985022466300551e-05 9.985022466300551e-05 9.985022466300551e-05 9.985022466300551e-05 9.985022466300551e-05 9.985022466300551e-05 9.985022466300551e-05 9.985022466300551e-05 9.985022466300551e-05 9.985022466300551e-05 9.985022466300551e-05;
    ( meldugm_state3 meldugsan_state1 fungicid_state0 ) 9.987016878058526e-05 9.987016878058526e-05 9.987016878058526e-05 9.987016878058526e-05 0.0006990911814640968 0.171676820133826 0.8261260361530013 0.0001997403375611705 9.987016878058526e-05 9.987016878058526e-05 9.987016878058526e-05 9.987016878058526e-05 9.987016878058526e-05 9.987016878058526e-05 9.987016878058526e-05 9.987016878058526e-05 9.987016878058526e-05;
    ( meldugm_state3 meldugsan_state1 fungicid_state1 ) 9.985022466300551e-05 0.0003994008986520221 0.9981028457314031 9.985022466300551e-05 9.985022466300551e-05 9.985022466300551e-05 9.985022466300551e-05 9.985022466300551e-05 9.985022466300551e-05 9.985022466300551e-05 9.985022466300551e-05 9.985022466300551e-05 9.985022466300551e-05 9.985022466300551e-05 9.985022466300551e-05 9.985022466300551e-05 9.985022466300551e-05;
    ( meldugm_state3 meldugsan_state2 fungicid_state0 ) 9.985022466300549e-05 9.985022466300549e-05 9.985022466300549e-05 9.985022466300549e-05 0.003994008986520219 0.4131802296555167 0.581427858212681 9.985022466300549e-05 9.985022466300549e-05 9.985022466300549e-05 9.985022466300549e-05 9.985022466300549e-05 9.985022466300549e-05 9.985022466300549e-05 9.985022466300549e-05 9.985022466300549e-05 9.985022466300549e-05;
    ( meldugm_state3 meldugsan_state2 fungicid_state1 ) 9.985022466300551e-05 0.0003994008986520221 0.9981028457314031 9.985022466300551e-05 9.985022466300551e-05 9.985022466300551e-05 9.985022466300551e-05 9.985022466300551e-05 9.985022466300551e-05 9.985022466300551e-05 9.985022466300551e-05 9.985022466300551e-05 9.985022466300551e-05 9.985022466300551e-05 9.985022466300551e-05 9.985022466300551e-05 9.985022466300551e-05;
    ( meldugm_state3 meldugsan_state3 fungicid_state0 ) 9.986019572598363e-05 9.986019572598363e-05 9.986019572598363e-05 9.986019572598363e-05 0.02236868384262033 0.7215897743159577 0.2546434991012583 9.986019572598363e-05 9.986019572598363e-05 9.986019572598363e-05 9.986019572598363e-05 9.986019572598363e-05 9.986019572598363e-05 9.986019572598363e-05 9.986019572598363e-05 9.986019572598363e-05 9.986019572598363e-05;
    ( meldugm_state3 meldugsan_state3 fungicid_state1 ) 9.985022466300551e-05 0.0003994008986520221 0.9981028457314031 9.985022466300551e-05 9.985022466300551e-05 9.985022466300551e-05 9.985022466300551e-05 9.985022466300551e-05 9.985022466300551e-05 9.985022466300551e-05 9.985022466300551e-05 9.985022466300551e-05 9.985022466300551e-05 9.985022466300551e-05 9.985022466300551e-05 9.985022466300551e-05 9.985022466300551e-05;
    ( meldugm_state3 meldugsan_state4 fungicid_state0 ) 9.986019572598363e-05 9.986019572598363e-05 9.986019572598363e-05 9.986019572598363e-05 0.1092470541242261 0.8442180946674657 0.0451368084681446 9.986019572598363e-05 9.986019572598363e-05 9.986019572598363e-05 9.986019572598363e-05 9.986019572598363e-05 9.986019572598363e-05 9.986019572598363e-05 9.986019572598363e-05 9.986019572598363e-05 9.986019572598363e-05;
    ( meldugm_state3 meldugsan_state4 fungicid_state1 ) 9.985022466300551e-05 0.0003994008986520221 0.9981028457314031 9.985022466300551e-05 9.985022466300551e-05 9.985022466300551e-05 9.985022466300551e-05 9.985022466300551e-05 9.985022466300551e-05 9.985022466300551e-05 9.985022466300551e-05 9.985022466300551e-05 9.985022466300551e-05 9.985022466300551e-05 9.985022466300551e-05 9.985022466300551e-05 9.985022466300551e-05;
    ( meldugm_state3 meldugsan_state5 fungicid_state0 ) 9.987016878058526e-05 9.987016878058526e-05 9.987016878058526e-05 0.0001997403375611705 0.3864975531808649 0.6104064715869371 0.001597922700489364 9.987016878058526e-05 9.987016878058526e-05 9.987016878058526e-05 9.987016878058526e-05 9.987016878058526e-05 9.987016878058526e-05 9.987016878058526e-05 9.987016878058526e-05 9.987016878058526e-05 9.987016878058526e-05;
    ( meldugm_state3 meldugsan_state5 fungicid_state1 ) 9.985022466300551e-05 0.0003994008986520221 0.9981028457314031 9.985022466300551e-05 9.985022466300551e-05 9.985022466300551e-05 9.985022466300551e-05 9.985022466300551e-05 9.985022466300551e-05 9.985022466300551e-05 9.985022466300551e-05 9.985022466300551e-05 9.985022466300551e-05 9.985022466300551e-05 9.985022466300551e-05 9.985022466300551e-05 9.985022466300551e-05;
    ( meldugm_state3 meldugsan_state6 fungicid_state0 ) 9.987016878058526e-05 9.987016878058526e-05 9.987016878058526e-05 0.002996105063417558 0.8074503145910318 0.1881553979826226 9.987016878058526e-05 9.987016878058526e-05 9.987016878058526e-05 9.987016878058526e-05 9.987016878058526e-05 9.987016878058526e-05 9.987016878058526e-05 9.987016878058526e-05 9.987016878058526e-05 9.987016878058526e-05 9.987016878058526e-05;
    ( meldugm_state3 meldugsan_state6 fungicid_state1 ) 9.985022466300551e-05 0.0003994008986520221 0.9981028457314031 9.985022466300551e-05 9.985022466300551e-05 9.985022466300551e-05 9.985022466300551e-05 9.985022466300551e-05 9.985022466300551e-05 9.985022466300551e-05 9.985022466300551e-05 9.985022466300551e-05 9.985022466300551e-05 9.985022466300551e-05 9.985022466300551e-05 9.985022466300551e-05 9.985022466300551e-05;
    ( meldugm_state3 meldugsan_state7 fungicid_state0 ) 9.986019572598363e-05 9.986019572598363e-05 9.986019572598363e-05 0.03994407829039345 0.9498701817455564 0.008787697223886561 9.986019572598363e-05 9.986019572598363e-05 9.986019572598363e-05 9.986019572598363e-05 9.986019572598363e-05 9.986019572598363e-05 9.986019572598363e-05 9.986019572598363e-05 9.986019572598363e-05 9.986019572598363e-05 9.986019572598363e-05;
    ( meldugm_state3 meldugsan_state7 fungicid_state1 ) 9.985022466300551e-05 0.0003994008986520221 0.9981028457314031 9.985022466300551e-05 9.985022466300551e-05 9.985022466300551e-05 9.985022466300551e-05 9.985022466300551e-05 9.985022466300551e-05 9.985022466300551e-05 9.985022466300551e-05 9.985022466300551e-05 9.985022466300551e-05 9.985022466300551e-05 9.985022466300551e-05 9.985022466300551e-05 9.985022466300551e-05;
    ( meldugm_state3 meldugsan_state8 fungicid_state0 ) 9.985022466300551e-05 9.985022466300551e-05 9.985022466300551e-05 0.3292061907139291 0.669296055916126 9.985022466300551e-05 9.985022466300551e-05 9.985022466300551e-05 9.985022466300551e-05 9.985022466300551e-05 9.985022466300551e-05 9.985022466300551e-05 9.985022466300551e-05 9.985022466300551e-05 9.985022466300551e-05 9.985022466300551e-05 9.985022466300551e-05;
    ( meldugm_state3 meldugsan_state8 fungicid_state1 ) 9.985022466300551e-05 0.0003994008986520221 0.9981028457314031 9.985022466300551e-05 9.985022466300551e-05 9.985022466300551e-05 9.985022466300551e-05 9.985022466300551e-05 9.985022466300551e-05 9.985022466300551e-05 9.985022466300551e-05 9.985022466300551e-05 9.985022466300551e-05 9.985022466300551e-05 9.985022466300551e-05 9.985022466300551e-05 9.985022466300551e-05;
    ( meldugm_state3 meldugsan_state9 fungicid_state0 ) 9.987016878058526e-05 9.987016878058526e-05 0.006691301308299213 0.9865175272146212 0.005392989114151604 9.987016878058526e-05 9.987016878058526e-05 9.987016878058526e-05 9.987016878058526e-05 9.987016878058526e-05 9.987016878058526e-05 9.987016878058526e-05 9.987016878058526e-05 9.987016878058526e-05 9.987016878058526e-05 9.987016878058526e-05 9.987016878058526e-05;
    ( meldugm_state3 meldugsan_state9 fungicid_state1 ) 9.985022466300551e-05 0.0003994008986520221 0.9981028457314031 9.985022466300551e-05 9.985022466300551e-05 9.985022466300551e-05 9.985022466300551e-05 9.985022466300551e-05 9.985022466300551e-05 9.985022466300551e-05 9.985022466300551e-05 9.985022466300551e-05 9.985022466300551e-05 9.985022466300551e-05 9.985022466300551e-05 9.985022466300551e-05 9.985022466300551e-05;
    ( meldugm_state3 meldugsan_state10 fungicid_state0 ) 9.985022466300551e-05 0.0004992511233150275 0.9980029955067401 9.985022466300551e-05 9.985022466300551e-05 9.985022466300551e-05 9.985022466300551e-05 9.985022466300551e-05 9.985022466300551e-05 9.985022466300551e-05 9.985022466300551e-05 9.985022466300551e-05 9.985022466300551e-05 9.985022466300551e-05 9.985022466300551e-05 9.985022466300551e-05 9.985022466300551e-05;
    ( meldugm_state3 meldugsan_state10 fungicid_state1 ) 9.985022466300551e-05 0.0003994008986520221 0.9981028457314031 9.985022466300551e-05 9.985022466300551e-05 9.985022466300551e-05 9.985022466300551e-05 9.985022466300551e-05 9.985022466300551e-05 9.985022466300551e-05 9.985022466300551e-05 9.985022466300551e-05 9.985022466300551e-05 9.985022466300551e-05 9.985022466300551e-05 9.985022466300551e-05 9.985022466300551e-05;
    ( meldugm_state4 meldugsan_state0 fungicid_state0 ) 9.986019572598363e-05 9.986019572598363e-05 9.986019572598363e-05 9.986019572598363e-05 9.986019572598363e-05 9.986019572598363e-05 0.07709207110045938 0.8459157179948074 0.07559416816456961 9.986019572598363e-05 9.986019572598363e-05 9.986019572598363e-05 9.986019572598363e-05 9.986019572598363e-05 9.986019572598363e-05 9.986019572598363e-05 9.986019572598363e-05;
    ( meldugm_state4 meldugsan_state0 fungicid_state1 ) 9.984025559105434e-05 9.984025559105434e-05 0.9984025559105433 9.984025559105434e-05 9.984025559105434e-05 9.984025559105434e-05 9.984025559105434e-05 9.984025559105434e-05 9.984025559105434e-05 9.984025559105434e-05 9.984025559105434e-05 9.984025559105434e-05 9.984025559105434e-05 9.984025559105434e-05 9.984025559105434e-05 9.984025559105434e-05 9.984025559105434e-05;
    ( meldugm_state4 meldugsan_state1 fungicid_state0 ) 9.987016878058526e-05 9.987016878058526e-05 9.987016878058526e-05 9.987016878058526e-05 9.987016878058526e-05 0.0006990911814640968 0.5731548986317787 0.4246479576550485 0.0001997403375611705 9.987016878058526e-05 9.987016878058526e-05 9.987016878058526e-05 9.987016878058526e-05 9.987016878058526e-05 9.987016878058526e-05 9.987016878058526e-05 9.987016878058526e-05;
    ( meldugm_state4 meldugsan_state1 fungicid_state1 ) 9.984025559105434e-05 9.984025559105434e-05 0.9984025559105433 9.984025559105434e-05 9.984025559105434e-05 9.984025559105434e-05 9.984025559105434e-05 9.984025559105434e-05 9.984025559105434e-05 9.984025559105434e-05 9.984025559105434e-05 9.984025559105434e-05 9.984025559105434e-05 9.984025559105434e-05 9.984025559105434e-05 9.984025559105434e-05 9.984025559105434e-05;
    ( meldugm_state4 meldugsan_state2 fungicid_state0 ) 9.986019572598363e-05 9.986019572598363e-05 9.986019572598363e-05 9.986019572598363e-05 9.986019572598363e-05 0.003994407829039345 0.8401238266427004 0.1544837227880967 9.986019572598363e-05 9.986019572598363e-05 9.986019572598363e-05 9.986019572598363e-05 9.986019572598363e-05 9.986019572598363e-05 9.986019572598363e-05 9.986019572598363e-05 9.986019572598363e-05;
    ( meldugm_state4 meldugsan_state2 fungicid_state1 ) 9.984025559105434e-05 9.984025559105434e-05 0.9984025559105433 9.984025559105434e-05 9.984025559105434e-05 9.984025559105434e-05 9.984025559105434e-05 9.984025559105434e-05 9.984025559105434e-05 9.984025559105434e-05 9.984025559105434e-05 9.984025559105434e-05 9.984025559105434e-05 9.984025559105434e-05 9.984025559105434e-05 9.984025559105434e-05 9.984025559105434e-05;
    ( meldugm_state4 meldugsan_state3 fungicid_state0 ) 9.987016878058526e-05 9.987016878058526e-05 9.987016878058526e-05 9.987016878058526e-05 9.987016878058526e-05 0.0223709178068511 0.9530610206731251 0.02316987915709578 9.987016878058526e-05 9.987016878058526e-05 9.987016878058526e-05 9.987016878058526e-05 9.987016878058526e-05 9.987016878058526e-05 9.987016878058526e-05 9.987016878058526e-05 9.987016878058526e-05;
    ( meldugm_state4 meldugsan_state3 fungicid_state1 ) 9.984025559105434e-05 9.984025559105434e-05 0.9984025559105433 9.984025559105434e-05 9.984025559105434e-05 9.984025559105434e-05 9.984025559105434e-05 9.984025559105434e-05 9.984025559105434e-05 9.984025559105434e-05 9.984025559105434e-05 9.984025559105434e-05 9.984025559105434e-05 9.984025559105434e-05 9.984025559105434e-05 9.984025559105434e-05 9.984025559105434e-05;
    ( meldugm_state4 meldugsan_state4 fungicid_state0 ) 9.987016878058526e-05 9.987016878058526e-05 9.987016878058526e-05 9.987016878058526e-05 0.0002996105063417558 0.1089583541396185 0.8886447618096477 0.000798961350244682 9.987016878058526e-05 9.987016878058526e-05 9.987016878058526e-05 9.987016878058526e-05 9.987016878058526e-05 9.987016878058526e-05 9.987016878058526e-05 9.987016878058526e-05 9.987016878058526e-05;
    ( meldugm_state4 meldugsan_state4 fungicid_state1 ) 9.984025559105434e-05 9.984025559105434e-05 0.9984025559105433 9.984025559105434e-05 9.984025559105434e-05 9.984025559105434e-05 9.984025559105434e-05 9.984025559105434e-05 9.984025559105434e-05 9.984025559105434e-05 9.984025559105434e-05 9.984025559105434e-05 9.984025559105434e-05 9.984025559105434e-05 9.984025559105434e-05 9.984025559105434e-05 9.984025559105434e-05;
    ( meldugm_state4 meldugsan_state5 fungicid_state0 ) 9.986019572598363e-05 9.986019572598363e-05 9.986019572598363e-05 9.986019572598363e-05 0.00329538645895746 0.3833632913920512 0.6119432794088278 9.986019572598363e-05 9.986019572598363e-05 9.986019572598363e-05 9.986019572598363e-05 9.986019572598363e-05 9.986019572598363e-05 9.986019572598363e-05 9.986019572598363e-05 9.986019572598363e-05 9.986019572598363e-05;
    ( meldugm_state4 meldugsan_state5 fungicid_state1 ) 9.984025559105434e-05 9.984025559105434e-05 0.9984025559105433 9.984025559105434e-05 9.984025559105434e-05 9.984025559105434e-05 9.984025559105434e-05 9.984025559105434e-05 9.984025559105434e-05 9.984025559105434e-05 9.984025559105434e-05 9.984025559105434e-05 9.984025559105434e-05 9.984025559105434e-05 9.984025559105434e-05 9.984025559105434e-05 9.984025559105434e-05;
    ( meldugm_state4 meldugsan_state6 fungicid_state0 ) 9.986019572598363e-05 9.986019572598363e-05 9.986019572598363e-05 9.986019572598363e-05 0.03305372478530058 0.7774116237267826 0.1881366087477532 9.986019572598363e-05 9.986019572598363e-05 9.986019572598363e-05 9.986019572598363e-05 9.986019572598363e-05 9.986019572598363e-05 9.986019572598363e-05 9.986019572598363e-05 9.986019572598363e-05 9.986019572598363e-05;
    ( meldugm_state4 meldugsan_state6 fungicid_state1 ) 9.984025559105434e-05 9.984025559105434e-05 0.9984025559105433 9.984025559105434e-05 9.984025559105434e-05 9.984025559105434e-05 9.984025559105434e-05 9.984025559105434e-05 9.984025559105434e-05 9.984025559105434e-05 9.984025559105434e-05 9.984025559105434e-05 9.984025559105434e-05 9.984025559105434e-05 9.984025559105434e-05 9.984025559105434e-05 9.984025559105434e-05;
    ( meldugm_state4 meldugsan_state7 fungicid_state0 ) 9.986019572598363e-05 9.986019572598363e-05 9.986019572598363e-05 9.986019572598363e-05 0.2356700619133214 0.7541441981226285 0.008787697223886561 9.986019572598363e-05 9.986019572598363e-05 9.986019572598363e-05 9.986019572598363e-05 9.986019572598363e-05 9.986019572598363e-05 9.986019572598363e-05 9.986019572598363e-05 9.986019572598363e-05 9.986019572598363e-05;
    ( meldugm_state4 meldugsan_state7 fungicid_state1 ) 9.984025559105434e-05 9.984025559105434e-05 0.9984025559105433 9.984025559105434e-05 9.984025559105434e-05 9.984025559105434e-05 9.984025559105434e-05 9.984025559105434e-05 9.984025559105434e-05 9.984025559105434e-05 9.984025559105434e-05 9.984025559105434e-05 9.984025559105434e-05 9.984025559105434e-05 9.984025559105434e-05 9.984025559105434e-05 9.984025559105434e-05;
    ( meldugm_state4 meldugsan_state8 fungicid_state0 ) 9.986019572598363e-05 9.986019572598363e-05 9.986019572598363e-05 0.002296784501697624 0.7712202915917716 0.2250848811663671 9.986019572598363e-05 9.986019572598363e-05 9.986019572598363e-05 9.986019572598363e-05 9.986019572598363e-05 9.986019572598363e-05 9.986019572598363e-05 9.986019572598363e-05 9.986019572598363e-05 9.986019572598363e-05 9.986019572598363e-05;
    ( meldugm_state4 meldugsan_state8 fungicid_state1 ) 9.984025559105434e-05 9.984025559105434e-05 0.9984025559105433 9.984025559105434e-05 9.984025559105434e-05 9.984025559105434e-05 9.984025559105434e-05 9.984025559105434e-05 9.984025559105434e-05 9.984025559105434e-05 9.984025559105434e-05 9.984025559105434e-05 9.984025559105434e-05 9.984025559105434e-05 9.984025559105434e-05 9.984025559105434e-05 9.984025559105434e-05;
    ( meldugm_state4 meldugsan_state9 fungicid_state0 ) 9.986019572598363e-05 9.986019572598363e-05 9.986019572598363e-05 0.2771120431396046 0.7213900539245058 9.986019572598363e-05 9.986019572598363e-05 9.986019572598363e-05 9.986019572598363e-05 9.986019572598363e-05 9.986019572598363e-05 9.986019572598363e-05 9.986019572598363e-05 9.986019572598363e-05 9.986019572598363e-05 9.986019572598363e-05 9.986019572598363e-05;
    ( meldugm_state4 meldugsan_state9 fungicid_state1 ) 9.984025559105434e-05 9.984025559105434e-05 0.9984025559105433 9.984025559105434e-05 9.984025559105434e-05 9.984025559105434e-05 9.984025559105434e-05 9.984025559105434e-05 9.984025559105434e-05 9.984025559105434e-05 9.984025559105434e-05 9.984025559105434e-05 9.984025559105434e-05 9.984025559105434e-05 9.984025559105434e-05 9.984025559105434e-05 9.984025559105434e-05;
    ( meldugm_state4 meldugsan_state10 fungicid_state0 ) 9.984025559105434e-05 9.984025559105434e-05 0.9984025559105433 9.984025559105434e-05 9.984025559105434e-05 9.984025559105434e-05 9.984025559105434e-05 9.984025559105434e-05 9.984025559105434e-05 9.984025559105434e-05 9.984025559105434e-05 9.984025559105434e-05 9.984025559105434e-05 9.984025559105434e-05 9.984025559105434e-05 9.984025559105434e-05 9.984025559105434e-05;
    ( meldugm_state4 meldugsan_state10 fungicid_state1 ) 9.984025559105434e-05 9.984025559105434e-05 0.9984025559105433 9.984025559105434e-05 9.984025559105434e-05 9.984025559105434e-05 9.984025559105434e-05 9.984025559105434e-05 9.984025559105434e-05 9.984025559105434e-05 9.984025559105434e-05 9.984025559105434e-05 9.984025559105434e-05 9.984025559105434e-05 9.984025559105434e-05 9.984025559105434e-05 9.984025559105434e-05;
    ( meldugm_state5 meldugsan_state0 fungicid_state0 ) 9.987016878058526e-05 9.987016878058526e-05 9.987016878058526e-05 9.987016878058526e-05 9.987016878058526e-05 9.987016878058526e-05 0.000798961350244682 0.1959452711475083 0.7969639468690703 0.004993508439029263 9.987016878058526e-05 9.987016878058526e-05 9.987016878058526e-05 9.987016878058526e-05 9.987016878058526e-05 9.987016878058526e-05 9.987016878058526e-05;
    ( meldugm_state5 meldugsan_state0 fungicid_state1 ) 9.985022466300551e-05 9.985022466300551e-05 0.9757363954068897 0.02276585122316526 9.985022466300551e-05 9.985022466300551e-05 9.985022466300551e-05 9.985022466300551e-05 9.985022466300551e-05 9.985022466300551e-05 9.985022466300551e-05 9.985022466300551e-05 9.985022466300551e-05 9.985022466300551e-05 9.985022466300551e-05 9.985022466300551e-05 9.985022466300551e-05;
    ( meldugm_state5 meldugsan_state1 fungicid_state0 ) 9.986019572598362e-05 9.986019572598362e-05 9.986019572598362e-05 9.986019572598362e-05 9.986019572598362e-05 9.986019572598362e-05 0.03215498302376672 0.773816656680647 0.1926303175554224 9.986019572598362e-05 9.986019572598362e-05 9.986019572598362e-05 9.986019572598362e-05 9.986019572598362e-05 9.986019572598362e-05 9.986019572598362e-05 9.986019572598362e-05;
    ( meldugm_state5 meldugsan_state1 fungicid_state1 ) 9.985022466300551e-05 9.985022466300551e-05 0.9757363954068897 0.02276585122316526 9.985022466300551e-05 9.985022466300551e-05 9.985022466300551e-05 9.985022466300551e-05 9.985022466300551e-05 9.985022466300551e-05 9.985022466300551e-05 9.985022466300551e-05 9.985022466300551e-05 9.985022466300551e-05 9.985022466300551e-05 9.985022466300551e-05 9.985022466300551e-05;
    ( meldugm_state5 meldugsan_state2 fungicid_state0 ) 9.986019572598363e-05 9.986019572598363e-05 9.986019572598363e-05 9.986019572598363e-05 9.986019572598363e-05 9.986019572598363e-05 0.1174355901737568 0.8412222887956862 0.03994407829039345 9.986019572598363e-05 9.986019572598363e-05 9.986019572598363e-05 9.986019572598363e-05 9.986019572598363e-05 9.986019572598363e-05 9.986019572598363e-05 9.986019572598363e-05;
    ( meldugm_state5 meldugsan_state2 fungicid_state1 ) 9.985022466300551e-05 9.985022466300551e-05 0.9757363954068897 0.02276585122316526 9.985022466300551e-05 9.985022466300551e-05 9.985022466300551e-05 9.985022466300551e-05 9.985022466300551e-05 9.985022466300551e-05 9.985022466300551e-05 9.985022466300551e-05 9.985022466300551e-05 9.985022466300551e-05 9.985022466300551e-05 9.985022466300551e-05 9.985022466300551e-05;
    ( meldugm_state5 meldugsan_state3 fungicid_state0 ) 9.986019572598363e-05 9.986019572598363e-05 9.986019572598363e-05 9.986019572598363e-05 9.986019572598363e-05 0.0001997203914519673 0.3414220091871381 0.6544837227880967 0.002596365088875574 9.986019572598363e-05 9.986019572598363e-05 9.986019572598363e-05 9.986019572598363e-05 9.986019572598363e-05 9.986019572598363e-05 9.986019572598363e-05 9.986019572598363e-05;
    ( meldugm_state5 meldugsan_state3 fungicid_state1 ) 9.985022466300551e-05 9.985022466300551e-05 0.9757363954068897 0.02276585122316526 9.985022466300551e-05 9.985022466300551e-05 9.985022466300551e-05 9.985022466300551e-05 9.985022466300551e-05 9.985022466300551e-05 9.985022466300551e-05 9.985022466300551e-05 9.985022466300551e-05 9.985022466300551e-05 9.985022466300551e-05 9.985022466300551e-05 9.985022466300551e-05;
    ( meldugm_state5 meldugsan_state4 fungicid_state0 ) 9.986019572598363e-05 9.986019572598363e-05 9.986019572598363e-05 9.986019572598363e-05 9.986019572598363e-05 0.001398042740163771 0.6976233273417217 0.2995805871779509 9.986019572598363e-05 9.986019572598363e-05 9.986019572598363e-05 9.986019572598363e-05 9.986019572598363e-05 9.986019572598363e-05 9.986019572598363e-05 9.986019572598363e-05 9.986019572598363e-05;
    ( meldugm_state5 meldugsan_state4 fungicid_state1 ) 9.985022466300551e-05 9.985022466300551e-05 0.9757363954068897 0.02276585122316526 9.985022466300551e-05 9.985022466300551e-05 9.985022466300551e-05 9.985022466300551e-05 9.985022466300551e-05 9.985022466300551e-05 9.985022466300551e-05 9.985022466300551e-05 9.985022466300551e-05 9.985022466300551e-05 9.985022466300551e-05 9.985022466300551e-05 9.985022466300551e-05;
    ( meldugm_state5 meldugsan_state5 fungicid_state0 ) 9.986019572598363e-05 9.986019572598363e-05 9.986019572598363e-05 9.986019572598363e-05 9.986019572598363e-05 0.01288196524865189 0.9368883563011785 0.048831635710006 9.986019572598363e-05 9.986019572598363e-05 9.986019572598363e-05 9.986019572598363e-05 9.986019572598363e-05 9.986019572598363e-05 9.986019572598363e-05 9.986019572598363e-05 9.986019572598363e-05;
    ( meldugm_state5 meldugsan_state5 fungicid_state1 ) 9.985022466300551e-05 9.985022466300551e-05 0.9757363954068897 0.02276585122316526 9.985022466300551e-05 9.985022466300551e-05 9.985022466300551e-05 9.985022466300551e-05 9.985022466300551e-05 9.985022466300551e-05 9.985022466300551e-05 9.985022466300551e-05 9.985022466300551e-05 9.985022466300551e-05 9.985022466300551e-05 9.985022466300551e-05 9.985022466300551e-05;
    ( meldugm_state5 meldugsan_state6 fungicid_state0 ) 9.987016878058524e-05 9.987016878058524e-05 9.987016878058524e-05 9.987016878058524e-05 0.0002996105063417557 0.09757315489863176 0.8997303505442924 0.001098571856586438 9.987016878058524e-05 9.987016878058524e-05 9.987016878058524e-05 9.987016878058524e-05 9.987016878058524e-05 9.987016878058524e-05 9.987016878058524e-05 9.987016878058524e-05 9.987016878058524e-05;
    ( meldugm_state5 meldugsan_state6 fungicid_state1 ) 9.985022466300551e-05 9.985022466300551e-05 0.9757363954068897 0.02276585122316526 9.985022466300551e-05 9.985022466300551e-05 9.985022466300551e-05 9.985022466300551e-05 9.985022466300551e-05 9.985022466300551e-05 9.985022466300551e-05 9.985022466300551e-05 9.985022466300551e-05 9.985022466300551e-05 9.985022466300551e-05 9.985022466300551e-05 9.985022466300551e-05;
    ( meldugm_state5 meldugsan_state7 fungicid_state0 ) 9.986019572598363e-05 9.986019572598363e-05 9.986019572598363e-05 9.986019572598363e-05 0.004993009786299182 0.4543638905532256 0.5392450569203117 9.986019572598363e-05 9.986019572598363e-05 9.986019572598363e-05 9.986019572598363e-05 9.986019572598363e-05 9.986019572598363e-05 9.986019572598363e-05 9.986019572598363e-05 9.986019572598363e-05 9.986019572598363e-05;
    ( meldugm_state5 meldugsan_state7 fungicid_state1 ) 9.985022466300551e-05 9.985022466300551e-05 0.9757363954068897 0.02276585122316526 9.985022466300551e-05 9.985022466300551e-05 9.985022466300551e-05 9.985022466300551e-05 9.985022466300551e-05 9.985022466300551e-05 9.985022466300551e-05 9.985022466300551e-05 9.985022466300551e-05 9.985022466300551e-05 9.985022466300551e-05 9.985022466300551e-05 9.985022466300551e-05;
    ( meldugm_state5 meldugsan_state8 fungicid_state0 ) 9.987016878058526e-05 9.987016878058526e-05 9.987016878058526e-05 9.987016878058526e-05 0.08109457704983522 0.8469989014281435 0.07050833915909319 9.987016878058526e-05 9.987016878058526e-05 9.987016878058526e-05 9.987016878058526e-05 9.987016878058526e-05 9.987016878058526e-05 9.987016878058526e-05 9.987016878058526e-05 9.987016878058526e-05 9.987016878058526e-05;
    ( meldugm_state5 meldugsan_state8 fungicid_state1 ) 9.985022466300551e-05 9.985022466300551e-05 0.9757363954068897 0.02276585122316526 9.985022466300551e-05 9.985022466300551e-05 9.985022466300551e-05 9.985022466300551e-05 9.985022466300551e-05 9.985022466300551e-05 9.985022466300551e-05 9.985022466300551e-05 9.985022466300551e-05 9.985022466300551e-05 9.985022466300551e-05 9.985022466300551e-05 9.985022466300551e-05;
    ( meldugm_state5 meldugsan_state9 fungicid_state0 ) 9.986019572598363e-05 9.986019572598363e-05 9.986019572598363e-05 0.006690633113640904 0.8938486119432796 0.09806271220291593 9.986019572598363e-05 9.986019572598363e-05 9.986019572598363e-05 9.986019572598363e-05 9.986019572598363e-05 9.986019572598363e-05 9.986019572598363e-05 9.986019572598363e-05 9.986019572598363e-05 9.986019572598363e-05 9.986019572598363e-05;
    ( meldugm_state5 meldugsan_state9 fungicid_state1 ) 9.985022466300551e-05 9.985022466300551e-05 0.9757363954068897 0.02276585122316526 9.985022466300551e-05 9.985022466300551e-05 9.985022466300551e-05 9.985022466300551e-05 9.985022466300551e-05 9.985022466300551e-05 9.985022466300551e-05 9.985022466300551e-05 9.985022466300551e-05 9.985022466300551e-05 9.985022466300551e-05 9.985022466300551e-05 9.985022466300551e-05;
    ( meldugm_state5 meldugsan_state10 fungicid_state0 ) 9.985022466300551e-05 9.985022466300551e-05 0.9781328007988019 0.02036944583125313 9.985022466300551e-05 9.985022466300551e-05 9.985022466300551e-05 9.985022466300551e-05 9.985022466300551e-05 9.985022466300551e-05 9.985022466300551e-05 9.985022466300551e-05 9.985022466300551e-05 9.985022466300551e-05 9.985022466300551e-05 9.985022466300551e-05 9.985022466300551e-05;
    ( meldugm_state5 meldugsan_state10 fungicid_state1 ) 9.985022466300551e-05 9.985022466300551e-05 0.9757363954068897 0.02276585122316526 9.985022466300551e-05 9.985022466300551e-05 9.985022466300551e-05 9.985022466300551e-05 9.985022466300551e-05 9.985022466300551e-05 9.985022466300551e-05 9.985022466300551e-05 9.985022466300551e-05 9.985022466300551e-05 9.985022466300551e-05 9.985022466300551e-05 9.985022466300551e-05;
    ( meldugm_state6 meldugsan_state0 fungicid_state0 ) 9.988014382740712e-05 9.988014382740712e-05 9.988014382740712e-05 9.988014382740712e-05 9.988014382740712e-05 9.988014382740712e-05 9.988014382740712e-05 0.008689572512984418 0.6754894127047544 0.3141230523371954 0.0003995205753096285 9.988014382740712e-05 9.988014382740712e-05 9.988014382740712e-05 9.988014382740712e-05 9.988014382740712e-05 9.988014382740712e-05;
    ( meldugm_state6 meldugsan_state0 fungicid_state1 ) 9.985022466300551e-05 9.985022466300551e-05 0.4992511233150275 0.4992511233150275 9.985022466300551e-05 9.985022466300551e-05 9.985022466300551e-05 9.985022466300551e-05 9.985022466300551e-05 9.985022466300551e-05 9.985022466300551e-05 9.985022466300551e-05 9.985022466300551e-05 9.985022466300551e-05 9.985022466300551e-05 9.985022466300551e-05 9.985022466300551e-05;
    ( meldugm_state6 meldugsan_state1 fungicid_state0 ) 9.987016878058524e-05 9.987016878058524e-05 9.987016878058524e-05 9.987016878058524e-05 9.987016878058524e-05 9.987016878058524e-05 0.0006990911814640967 0.171676820133826 0.8192349945071407 0.007090781983421552 9.987016878058524e-05 9.987016878058524e-05 9.987016878058524e-05 9.987016878058524e-05 9.987016878058524e-05 9.987016878058524e-05 9.987016878058524e-05;
    ( meldugm_state6 meldugsan_state1 fungicid_state1 ) 9.985022466300551e-05 9.985022466300551e-05 0.4992511233150275 0.4992511233150275 9.985022466300551e-05 9.985022466300551e-05 9.985022466300551e-05 9.985022466300551e-05 9.985022466300551e-05 9.985022466300551e-05 9.985022466300551e-05 9.985022466300551e-05 9.985022466300551e-05 9.985022466300551e-05 9.985022466300551e-05 9.985022466300551e-05 9.985022466300551e-05;
    ( meldugm_state6 meldugsan_state2 fungicid_state0 ) 9.986019572598363e-05 9.986019572598363e-05 9.986019572598363e-05 9.986019572598363e-05 9.986019572598363e-05 9.986019572598363e-05 0.003994407829039345 0.4132214899141203 0.5811863391252248 0.0002995805871779509 9.986019572598363e-05 9.986019572598363e-05 9.986019572598363e-05 9.986019572598363e-05 9.986019572598363e-05 9.986019572598363e-05 9.986019572598363e-05;
    ( meldugm_state6 meldugsan_state2 fungicid_state1 ) 9.985022466300551e-05 9.985022466300551e-05 0.4992511233150275 0.4992511233150275 9.985022466300551e-05 9.985022466300551e-05 9.985022466300551e-05 9.985022466300551e-05 9.985022466300551e-05 9.985022466300551e-05 9.985022466300551e-05 9.985022466300551e-05 9.985022466300551e-05 9.985022466300551e-05 9.985022466300551e-05 9.985022466300551e-05 9.985022466300551e-05;
    ( meldugm_state6 meldugsan_state3 fungicid_state0 ) 9.986019572598363e-05 9.986019572598363e-05 9.986019572598363e-05 9.986019572598363e-05 9.986019572598363e-05 9.986019572598363e-05 0.02236868384262033 0.7215897743159577 0.2546434991012583 9.986019572598363e-05 9.986019572598363e-05 9.986019572598363e-05 9.986019572598363e-05 9.986019572598363e-05 9.986019572598363e-05 9.986019572598363e-05 9.986019572598363e-05;
    ( meldugm_state6 meldugsan_state3 fungicid_state1 ) 9.985022466300551e-05 9.985022466300551e-05 0.4992511233150275 0.4992511233150275 9.985022466300551e-05 9.985022466300551e-05 9.985022466300551e-05 9.985022466300551e-05 9.985022466300551e-05 9.985022466300551e-05 9.985022466300551e-05 9.985022466300551e-05 9.985022466300551e-05 9.985022466300551e-05 9.985022466300551e-05 9.985022466300551e-05 9.985022466300551e-05;
    ( meldugm_state6 meldugsan_state4 fungicid_state0 ) 9.986019572598363e-05 9.986019572598363e-05 9.986019572598363e-05 9.986019572598363e-05 9.986019572598363e-05 9.986019572598363e-05 0.1092470541242261 0.8442180946674657 0.0451368084681446 9.986019572598363e-05 9.986019572598363e-05 9.986019572598363e-05 9.986019572598363e-05 9.986019572598363e-05 9.986019572598363e-05 9.986019572598363e-05 9.986019572598363e-05;
    ( meldugm_state6 meldugsan_state4 fungicid_state1 ) 9.985022466300551e-05 9.985022466300551e-05 0.4992511233150275 0.4992511233150275 9.985022466300551e-05 9.985022466300551e-05 9.985022466300551e-05 9.985022466300551e-05 9.985022466300551e-05 9.985022466300551e-05 9.985022466300551e-05 9.985022466300551e-05 9.985022466300551e-05 9.985022466300551e-05 9.985022466300551e-05 9.985022466300551e-05 9.985022466300551e-05;
    ( meldugm_state6 meldugsan_state5 fungicid_state0 ) 9.987016878058526e-05 9.987016878058526e-05 9.987016878058526e-05 9.987016878058526e-05 9.987016878058526e-05 0.0001997403375611705 0.3864975531808649 0.6104064715869371 0.001597922700489364 9.987016878058526e-05 9.987016878058526e-05 9.987016878058526e-05 9.987016878058526e-05 9.987016878058526e-05 9.987016878058526e-05 9.987016878058526e-05 9.987016878058526e-05;
    ( meldugm_state6 meldugsan_state5 fungicid_state1 ) 9.985022466300551e-05 9.985022466300551e-05 0.4992511233150275 0.4992511233150275 9.985022466300551e-05 9.985022466300551e-05 9.985022466300551e-05 9.985022466300551e-05 9.985022466300551e-05 9.985022466300551e-05 9.985022466300551e-05 9.985022466300551e-05 9.985022466300551e-05 9.985022466300551e-05 9.985022466300551e-05 9.985022466300551e-05 9.985022466300551e-05;
    ( meldugm_state6 meldugsan_state6 fungicid_state0 ) 9.987016878058526e-05 9.987016878058526e-05 9.987016878058526e-05 9.987016878058526e-05 9.987016878058526e-05 0.002996105063417558 0.8074503145910318 0.1881553979826226 9.987016878058526e-05 9.987016878058526e-05 9.987016878058526e-05 9.987016878058526e-05 9.987016878058526e-05 9.987016878058526e-05 9.987016878058526e-05 9.987016878058526e-05 9.987016878058526e-05;
    ( meldugm_state6 meldugsan_state6 fungicid_state1 ) 9.985022466300551e-05 9.985022466300551e-05 0.4992511233150275 0.4992511233150275 9.985022466300551e-05 9.985022466300551e-05 9.985022466300551e-05 9.985022466300551e-05 9.985022466300551e-05 9.985022466300551e-05 9.985022466300551e-05 9.985022466300551e-05 9.985022466300551e-05 9.985022466300551e-05 9.985022466300551e-05 9.985022466300551e-05 9.985022466300551e-05;
    ( meldugm_state6 meldugsan_state7 fungicid_state0 ) 9.986019572598363e-05 9.986019572598363e-05 9.986019572598363e-05 9.986019572598363e-05 9.986019572598363e-05 0.03994407829039345 0.9498701817455564 0.008787697223886561 9.986019572598363e-05 9.986019572598363e-05 9.986019572598363e-05 9.986019572598363e-05 9.986019572598363e-05 9.986019572598363e-05 9.986019572598363e-05 9.986019572598363e-05 9.986019572598363e-05;
    ( meldugm_state6 meldugsan_state7 fungicid_state1 ) 9.985022466300551e-05 9.985022466300551e-05 0.4992511233150275 0.4992511233150275 9.985022466300551e-05 9.985022466300551e-05 9.985022466300551e-05 9.985022466300551e-05 9.985022466300551e-05 9.985022466300551e-05 9.985022466300551e-05 9.985022466300551e-05 9.985022466300551e-05 9.985022466300551e-05 9.985022466300551e-05 9.985022466300551e-05 9.985022466300551e-05;
    ( meldugm_state6 meldugsan_state8 fungicid_state0 ) 9.987016878058526e-05 9.987016878058526e-05 9.987016878058526e-05 9.987016878058526e-05 0.002297013881953461 0.3268750624188555 0.669429741336263 9.987016878058526e-05 9.987016878058526e-05 9.987016878058526e-05 9.987016878058526e-05 9.987016878058526e-05 9.987016878058526e-05 9.987016878058526e-05 9.987016878058526e-05 9.987016878058526e-05 9.987016878058526e-05;
    ( meldugm_state6 meldugsan_state8 fungicid_state1 ) 9.985022466300551e-05 9.985022466300551e-05 0.4992511233150275 0.4992511233150275 9.985022466300551e-05 9.985022466300551e-05 9.985022466300551e-05 9.985022466300551e-05 9.985022466300551e-05 9.985022466300551e-05 9.985022466300551e-05 9.985022466300551e-05 9.985022466300551e-05 9.985022466300551e-05 9.985022466300551e-05 9.985022466300551e-05 9.985022466300551e-05;
    ( meldugm_state6 meldugsan_state9 fungicid_state0 ) 9.988014382740712e-05 9.988014382740712e-05 9.988014382740712e-05 9.988014382740712e-05 0.2770675189772273 0.716140631242509 0.005393527766679985 9.988014382740712e-05 9.988014382740712e-05 9.988014382740712e-05 9.988014382740712e-05 9.988014382740712e-05 9.988014382740712e-05 9.988014382740712e-05 9.988014382740712e-05 9.988014382740712e-05 9.988014382740712e-05;
    ( meldugm_state6 meldugsan_state9 fungicid_state1 ) 9.985022466300551e-05 9.985022466300551e-05 0.4992511233150275 0.4992511233150275 9.985022466300551e-05 9.985022466300551e-05 9.985022466300551e-05 9.985022466300551e-05 9.985022466300551e-05 9.985022466300551e-05 9.985022466300551e-05 9.985022466300551e-05 9.985022466300551e-05 9.985022466300551e-05 9.985022466300551e-05 9.985022466300551e-05 9.985022466300551e-05;
    ( meldugm_state6 meldugsan_state10 fungicid_state0 ) 9.985022466300551e-05 9.985022466300551e-05 0.5140289565651524 0.4844732900649028 9.985022466300551e-05 9.985022466300551e-05 9.985022466300551e-05 9.985022466300551e-05 9.985022466300551e-05 9.985022466300551e-05 9.985022466300551e-05 9.985022466300551e-05 9.985022466300551e-05 9.985022466300551e-05 9.985022466300551e-05 9.985022466300551e-05 9.985022466300551e-05;
    ( meldugm_state6 meldugsan_state10 fungicid_state1 ) 9.985022466300551e-05 9.985022466300551e-05 0.4992511233150275 0.4992511233150275 9.985022466300551e-05 9.985022466300551e-05 9.985022466300551e-05 9.985022466300551e-05 9.985022466300551e-05 9.985022466300551e-05 9.985022466300551e-05 9.985022466300551e-05 9.985022466300551e-05 9.985022466300551e-05 9.985022466300551e-05 9.985022466300551e-05 9.985022466300551e-05;
    ( meldugm_state7 meldugsan_state0 fungicid_state0 ) 9.987016878058526e-05 9.987016878058526e-05 9.987016878058526e-05 9.987016878058526e-05 9.987016878058526e-05 9.987016878058526e-05 9.987016878058526e-05 0.0002996105063417558 0.1543992809347848 0.7684010785978229 0.07560171776690304 9.987016878058526e-05 9.987016878058526e-05 9.987016878058526e-05 9.987016878058526e-05 9.987016878058526e-05 9.987016878058526e-05;
    ( meldugm_state7 meldugsan_state0 fungicid_state1 ) 9.985022466300551e-05 9.985022466300551e-05 0.07648527209186222 0.9220169745381929 9.985022466300551e-05 9.985022466300551e-05 9.985022466300551e-05 9.985022466300551e-05 9.985022466300551e-05 9.985022466300551e-05 9.985022466300551e-05 9.985022466300551e-05 9.985022466300551e-05 9.985022466300551e-05 9.985022466300551e-05 9.985022466300551e-05 9.985022466300551e-05;
    ( meldugm_state7 meldugsan_state1 fungicid_state0 ) 9.987016878058526e-05 9.987016878058526e-05 9.987016878058526e-05 9.987016878058526e-05 9.987016878058526e-05 9.987016878058526e-05 9.987016878058526e-05 0.01258364126635374 0.7360431439129134 0.2498751622890243 0.0001997403375611705 9.987016878058526e-05 9.987016878058526e-05 9.987016878058526e-05 9.987016878058526e-05 9.987016878058526e-05 9.987016878058526e-05;
    ( meldugm_state7 meldugsan_state1 fungicid_state1 ) 9.985022466300551e-05 9.985022466300551e-05 0.07648527209186222 0.9220169745381929 9.985022466300551e-05 9.985022466300551e-05 9.985022466300551e-05 9.985022466300551e-05 9.985022466300551e-05 9.985022466300551e-05 9.985022466300551e-05 9.985022466300551e-05 9.985022466300551e-05 9.985022466300551e-05 9.985022466300551e-05 9.985022466300551e-05 9.985022466300551e-05;
    ( meldugm_state7 meldugsan_state2 fungicid_state0 ) 9.986019572598363e-05 9.986019572598363e-05 9.986019572598363e-05 9.986019572598363e-05 9.986019572598363e-05 9.986019572598363e-05 9.986019572598363e-05 0.05392450569203117 0.8830637108048732 0.0616137407629319 9.986019572598363e-05 9.986019572598363e-05 9.986019572598363e-05 9.986019572598363e-05 9.986019572598363e-05 9.986019572598363e-05 9.986019572598363e-05;
    ( meldugm_state7 meldugsan_state2 fungicid_state1 ) 9.985022466300551e-05 9.985022466300551e-05 0.07648527209186222 0.9220169745381929 9.985022466300551e-05 9.985022466300551e-05 9.985022466300551e-05 9.985022466300551e-05 9.985022466300551e-05 9.985022466300551e-05 9.985022466300551e-05 9.985022466300551e-05 9.985022466300551e-05 9.985022466300551e-05 9.985022466300551e-05 9.985022466300551e-05 9.985022466300551e-05;
    ( meldugm_state7 meldugsan_state3 fungicid_state0 ) 9.987016878058524e-05 9.987016878058524e-05 9.987016878058524e-05 9.987016878058524e-05 9.987016878058524e-05 9.987016878058524e-05 0.0007989613502446819 0.1927494257465295 0.7999600519324878 0.005193248776590432 9.987016878058524e-05 9.987016878058524e-05 9.987016878058524e-05 9.987016878058524e-05 9.987016878058524e-05 9.987016878058524e-05 9.987016878058524e-05;
    ( meldugm_state7 meldugsan_state3 fungicid_state1 ) 9.985022466300551e-05 9.985022466300551e-05 0.07648527209186222 0.9220169745381929 9.985022466300551e-05 9.985022466300551e-05 9.985022466300551e-05 9.985022466300551e-05 9.985022466300551e-05 9.985022466300551e-05 9.985022466300551e-05 9.985022466300551e-05 9.985022466300551e-05 9.985022466300551e-05 9.985022466300551e-05 9.985022466300551e-05 9.985022466300551e-05;
    ( meldugm_state7 meldugsan_state4 fungicid_state0 ) 9.987016878058524e-05 9.987016878058524e-05 9.987016878058524e-05 9.987016878058524e-05 9.987016878058524e-05 9.987016878058524e-05 0.00649156097073804 0.502047338460002 0.4900629182063317 9.987016878058524e-05 9.987016878058524e-05 9.987016878058524e-05 9.987016878058524e-05 9.987016878058524e-05 9.987016878058524e-05 9.987016878058524e-05 9.987016878058524e-05;
    ( meldugm_state7 meldugsan_state4 fungicid_state1 ) 9.985022466300551e-05 9.985022466300551e-05 0.07648527209186222 0.9220169745381929 9.985022466300551e-05 9.985022466300551e-05 9.985022466300551e-05 9.985022466300551e-05 9.985022466300551e-05 9.985022466300551e-05 9.985022466300551e-05 9.985022466300551e-05 9.985022466300551e-05 9.985022466300551e-05 9.985022466300551e-05 9.985022466300551e-05 9.985022466300551e-05;
    ( meldugm_state7 meldugsan_state5 fungicid_state0 ) 9.986019572598363e-05 9.986019572598363e-05 9.986019572598363e-05 9.986019572598363e-05 9.986019572598363e-05 9.986019572598363e-05 0.04693429199121231 0.8163571000599162 0.1353105652087078 9.986019572598363e-05 9.986019572598363e-05 9.986019572598363e-05 9.986019572598363e-05 9.986019572598363e-05 9.986019572598363e-05 9.986019572598363e-05 9.986019572598363e-05;
    ( meldugm_state7 meldugsan_state5 fungicid_state1 ) 9.985022466300551e-05 9.985022466300551e-05 0.07648527209186222 0.9220169745381929 9.985022466300551e-05 9.985022466300551e-05 9.985022466300551e-05 9.985022466300551e-05 9.985022466300551e-05 9.985022466300551e-05 9.985022466300551e-05 9.985022466300551e-05 9.985022466300551e-05 9.985022466300551e-05 9.985022466300551e-05 9.985022466300551e-05 9.985022466300551e-05;
    ( meldugm_state7 meldugsan_state6 fungicid_state0 ) 9.986019572598362e-05 9.986019572598362e-05 9.986019572598362e-05 9.986019572598362e-05 9.986019572598362e-05 9.986019572598362e-05 0.2506490912722188 0.7405632115038945 0.007389654483722787 9.986019572598362e-05 9.986019572598362e-05 9.986019572598362e-05 9.986019572598362e-05 9.986019572598362e-05 9.986019572598362e-05 9.986019572598362e-05 9.986019572598362e-05;
    ( meldugm_state7 meldugsan_state6 fungicid_state1 ) 9.985022466300551e-05 9.985022466300551e-05 0.07648527209186222 0.9220169745381929 9.985022466300551e-05 9.985022466300551e-05 9.985022466300551e-05 9.985022466300551e-05 9.985022466300551e-05 9.985022466300551e-05 9.985022466300551e-05 9.985022466300551e-05 9.985022466300551e-05 9.985022466300551e-05 9.985022466300551e-05 9.985022466300551e-05 9.985022466300551e-05;
    ( meldugm_state7 meldugsan_state7 fungicid_state0 ) 9.986019572598363e-05 9.986019572598363e-05 9.986019572598363e-05 9.986019572598363e-05 9.986019572598363e-05 0.001697623327341722 0.725284601557819 0.2716197323746755 9.986019572598363e-05 9.986019572598363e-05 9.986019572598363e-05 9.986019572598363e-05 9.986019572598363e-05 9.986019572598363e-05 9.986019572598363e-05 9.986019572598363e-05 9.986019572598363e-05;
    ( meldugm_state7 meldugsan_state7 fungicid_state1 ) 9.985022466300551e-05 9.985022466300551e-05 0.07648527209186222 0.9220169745381929 9.985022466300551e-05 9.985022466300551e-05 9.985022466300551e-05 9.985022466300551e-05 9.985022466300551e-05 9.985022466300551e-05 9.985022466300551e-05 9.985022466300551e-05 9.985022466300551e-05 9.985022466300551e-05 9.985022466300551e-05 9.985022466300551e-05 9.985022466300551e-05;
    ( meldugm_state7 meldugsan_state8 fungicid_state0 ) 9.986019572598363e-05 9.986019572598363e-05 9.986019572598363e-05 9.986019572598363e-05 9.986019572598363e-05 0.03535050928699821 0.95226682644298 0.0109846215298582 9.986019572598363e-05 9.986019572598363e-05 9.986019572598363e-05 9.986019572598363e-05 9.986019572598363e-05 9.986019572598363e-05 9.986019572598363e-05 9.986019572598363e-05 9.986019572598363e-05;
    ( meldugm_state7 meldugsan_state8 fungicid_state1 ) 9.985022466300551e-05 9.985022466300551e-05 0.07648527209186222 0.9220169745381929 9.985022466300551e-05 9.985022466300551e-05 9.985022466300551e-05 9.985022466300551e-05 9.985022466300551e-05 9.985022466300551e-05 9.985022466300551e-05 9.985022466300551e-05 9.985022466300551e-05 9.985022466300551e-05 9.985022466300551e-05 9.985022466300551e-05 9.985022466300551e-05;
    ( meldugm_state7 meldugsan_state9 fungicid_state0 ) 9.986019572598363e-05 9.986019572598363e-05 9.986019572598363e-05 9.986019572598363e-05 0.02646295186738566 0.7470541242260835 0.2250848811663671 9.986019572598363e-05 9.986019572598363e-05 9.986019572598363e-05 9.986019572598363e-05 9.986019572598363e-05 9.986019572598363e-05 9.986019572598363e-05 9.986019572598363e-05 9.986019572598363e-05 9.986019572598363e-05;
    ( meldugm_state7 meldugsan_state9 fungicid_state1 ) 9.985022466300551e-05 9.985022466300551e-05 0.07648527209186222 0.9220169745381929 9.985022466300551e-05 9.985022466300551e-05 9.985022466300551e-05 9.985022466300551e-05 9.985022466300551e-05 9.985022466300551e-05 9.985022466300551e-05 9.985022466300551e-05 9.985022466300551e-05 9.985022466300551e-05 9.985022466300551e-05 9.985022466300551e-05 9.985022466300551e-05;
    ( meldugm_state7 meldugsan_state10 fungicid_state0 ) 9.986019572598363e-05 9.986019572598363e-05 0.0810864789294987 0.9174156181346116 9.986019572598363e-05 9.986019572598363e-05 9.986019572598363e-05 9.986019572598363e-05 9.986019572598363e-05 9.986019572598363e-05 9.986019572598363e-05 9.986019572598363e-05 9.986019572598363e-05 9.986019572598363e-05 9.986019572598363e-05 9.986019572598363e-05 9.986019572598363e-05;
    ( meldugm_state7 meldugsan_state10 fungicid_state1 ) 9.985022466300551e-05 9.985022466300551e-05 0.07648527209186222 0.9220169745381929 9.985022466300551e-05 9.985022466300551e-05 9.985022466300551e-05 9.985022466300551e-05 9.985022466300551e-05 9.985022466300551e-05 9.985022466300551e-05 9.985022466300551e-05 9.985022466300551e-05 9.985022466300551e-05 9.985022466300551e-05 9.985022466300551e-05 9.985022466300551e-05;
    ( meldugm_state8 meldugsan_state0 fungicid_state0 ) 9.987016878058524e-05 9.987016878058524e-05 9.987016878058524e-05 9.987016878058524e-05 9.987016878058524e-05 9.987016878058524e-05 9.987016878058524e-05 9.987016878058524e-05 0.01617896734245481 0.4852691501048637 0.4951562968141416 0.00209727354439229 9.987016878058524e-05 9.987016878058524e-05 9.987016878058524e-05 9.987016878058524e-05 9.987016878058524e-05;
    ( meldugm_state8 meldugsan_state0 fungicid_state1 ) 9.986019572598363e-05 9.986019572598363e-05 0.006191332135010985 0.9862192929898144 0.006191332135010985 9.986019572598363e-05 9.986019572598363e-05 9.986019572598363e-05 9.986019572598363e-05 9.986019572598363e-05 9.986019572598363e-05 9.986019572598363e-05 9.986019572598363e-05 9.986019572598363e-05 9.986019572598363e-05 9.986019572598363e-05 9.986019572598363e-05;
    ( meldugm_state8 meldugsan_state1 fungicid_state0 ) 9.987016878058526e-05 9.987016878058526e-05 9.987016878058526e-05 9.987016878058526e-05 9.987016878058526e-05 9.987016878058526e-05 9.987016878058526e-05 0.0006990911814640968 0.2533706181963448 0.7150704084689904 0.02956156995905324 9.987016878058526e-05 9.987016878058526e-05 9.987016878058526e-05 9.987016878058526e-05 9.987016878058526e-05 9.987016878058526e-05;
    ( meldugm_state8 meldugsan_state1 fungicid_state1 ) 9.986019572598363e-05 9.986019572598363e-05 0.006191332135010985 0.9862192929898144 0.006191332135010985 9.986019572598363e-05 9.986019572598363e-05 9.986019572598363e-05 9.986019572598363e-05 9.986019572598363e-05 9.986019572598363e-05 9.986019572598363e-05 9.986019572598363e-05 9.986019572598363e-05 9.986019572598363e-05 9.986019572598363e-05 9.986019572598363e-05;
    ( meldugm_state8 meldugsan_state2 fungicid_state0 ) 9.986019572598362e-05 9.986019572598362e-05 9.986019572598362e-05 9.986019572598362e-05 9.986019572598362e-05 9.986019572598362e-05 9.986019572598362e-05 0.003994407829039344 0.5344517675254643 0.4580587177950868 0.00219692430597164 9.986019572598362e-05 9.986019572598362e-05 9.986019572598362e-05 9.986019572598362e-05 9.986019572598362e-05 9.986019572598362e-05;
    ( meldugm_state8 meldugsan_state2 fungicid_state1 ) 9.986019572598363e-05 9.986019572598363e-05 0.006191332135010985 0.9862192929898144 0.006191332135010985 9.986019572598363e-05 9.986019572598363e-05 9.986019572598363e-05 9.986019572598363e-05 9.986019572598363e-05 9.986019572598363e-05 9.986019572598363e-05 9.986019572598363e-05 9.986019572598363e-05 9.986019572598363e-05 9.986019572598363e-05 9.986019572598363e-05;
    ( meldugm_state8 meldugsan_state3 fungicid_state0 ) 9.986019572598363e-05 9.986019572598363e-05 9.986019572598363e-05 9.986019572598363e-05 9.986019572598363e-05 9.986019572598363e-05 9.986019572598363e-05 0.02236868384262033 0.8158577990812863 0.1603754743359297 9.986019572598363e-05 9.986019572598363e-05 9.986019572598363e-05 9.986019572598363e-05 9.986019572598363e-05 9.986019572598363e-05 9.986019572598363e-05;
    ( meldugm_state8 meldugsan_state3 fungicid_state1 ) 9.986019572598363e-05 9.986019572598363e-05 0.006191332135010985 0.9862192929898144 0.006191332135010985 9.986019572598363e-05 9.986019572598363e-05 9.986019572598363e-05 9.986019572598363e-05 9.986019572598363e-05 9.986019572598363e-05 9.986019572598363e-05 9.986019572598363e-05 9.986019572598363e-05 9.986019572598363e-05 9.986019572598363e-05 9.986019572598363e-05;
    ( meldugm_state8 meldugsan_state4 fungicid_state0 ) 9.987016878058526e-05 9.987016878058526e-05 9.987016878058526e-05 9.987016878058526e-05 9.987016878058526e-05 9.987016878058526e-05 0.0002996105063417558 0.1089583541396185 0.869769299910117 0.01967442324977529 9.987016878058526e-05 9.987016878058526e-05 9.987016878058526e-05 9.987016878058526e-05 9.987016878058526e-05 9.987016878058526e-05 9.987016878058526e-05;
    ( meldugm_state8 meldugsan_state4 fungicid_state1 ) 9.986019572598363e-05 9.986019572598363e-05 0.006191332135010985 0.9862192929898144 0.006191332135010985 9.986019572598363e-05 9.986019572598363e-05 9.986019572598363e-05 9.986019572598363e-05 9.986019572598363e-05 9.986019572598363e-05 9.986019572598363e-05 9.986019572598363e-05 9.986019572598363e-05 9.986019572598363e-05 9.986019572598363e-05 9.986019572598363e-05;
    ( meldugm_state8 meldugsan_state5 fungicid_state0 ) 9.987016878058526e-05 9.987016878058526e-05 9.987016878058526e-05 9.987016878058526e-05 9.987016878058526e-05 9.987016878058526e-05 0.003295715569759313 0.3834015779486668 0.6116049136123042 0.000399480675122341 9.987016878058526e-05 9.987016878058526e-05 9.987016878058526e-05 9.987016878058526e-05 9.987016878058526e-05 9.987016878058526e-05 9.987016878058526e-05;
    ( meldugm_state8 meldugsan_state5 fungicid_state1 ) 9.986019572598363e-05 9.986019572598363e-05 0.006191332135010985 0.9862192929898144 0.006191332135010985 9.986019572598363e-05 9.986019572598363e-05 9.986019572598363e-05 9.986019572598363e-05 9.986019572598363e-05 9.986019572598363e-05 9.986019572598363e-05 9.986019572598363e-05 9.986019572598363e-05 9.986019572598363e-05 9.986019572598363e-05 9.986019572598363e-05;
    ( meldugm_state8 meldugsan_state6 fungicid_state0 ) 9.986019572598363e-05 9.986019572598363e-05 9.986019572598363e-05 9.986019572598363e-05 9.986019572598363e-05 9.986019572598363e-05 0.03305372478530058 0.7774116237267826 0.1881366087477532 9.986019572598363e-05 9.986019572598363e-05 9.986019572598363e-05 9.986019572598363e-05 9.986019572598363e-05 9.986019572598363e-05 9.986019572598363e-05 9.986019572598363e-05;
    ( meldugm_state8 meldugsan_state6 fungicid_state1 ) 9.986019572598363e-05 9.986019572598363e-05 0.006191332135010985 0.9862192929898144 0.006191332135010985 9.986019572598363e-05 9.986019572598363e-05 9.986019572598363e-05 9.986019572598363e-05 9.986019572598363e-05 9.986019572598363e-05 9.986019572598363e-05 9.986019572598363e-05 9.986019572598363e-05 9.986019572598363e-05 9.986019572598363e-05 9.986019572598363e-05;
    ( meldugm_state8 meldugsan_state7 fungicid_state0 ) 9.986019572598363e-05 9.986019572598363e-05 9.986019572598363e-05 9.986019572598363e-05 9.986019572598363e-05 9.986019572598363e-05 0.2356700619133214 0.7541441981226285 0.008787697223886561 9.986019572598363e-05 9.986019572598363e-05 9.986019572598363e-05 9.986019572598363e-05 9.986019572598363e-05 9.986019572598363e-05 9.986019572598363e-05 9.986019572598363e-05;
    ( meldugm_state8 meldugsan_state7 fungicid_state1 ) 9.986019572598363e-05 9.986019572598363e-05 0.006191332135010985 0.9862192929898144 0.006191332135010985 9.986019572598363e-05 9.986019572598363e-05 9.986019572598363e-05 9.986019572598363e-05 9.986019572598363e-05 9.986019572598363e-05 9.986019572598363e-05 9.986019572598363e-05 9.986019572598363e-05 9.986019572598363e-05 9.986019572598363e-05 9.986019572598363e-05;
    ( meldugm_state8 meldugsan_state8 fungicid_state0 ) 9.986019572598363e-05 9.986019572598363e-05 9.986019572598363e-05 9.986019572598363e-05 9.986019572598363e-05 0.002296784501697624 0.7712202915917716 0.2250848811663671 9.986019572598363e-05 9.986019572598363e-05 9.986019572598363e-05 9.986019572598363e-05 9.986019572598363e-05 9.986019572598363e-05 9.986019572598363e-05 9.986019572598363e-05 9.986019572598363e-05;
    ( meldugm_state8 meldugsan_state8 fungicid_state1 ) 9.986019572598363e-05 9.986019572598363e-05 0.006191332135010985 0.9862192929898144 0.006191332135010985 9.986019572598363e-05 9.986019572598363e-05 9.986019572598363e-05 9.986019572598363e-05 9.986019572598363e-05 9.986019572598363e-05 9.986019572598363e-05 9.986019572598363e-05 9.986019572598363e-05 9.986019572598363e-05 9.986019572598363e-05 9.986019572598363e-05;
    ( meldugm_state8 meldugsan_state9 fungicid_state0 ) 9.987016878058526e-05 9.987016878058526e-05 9.987016878058526e-05 9.987016878058526e-05 0.001597922700489364 0.2755417956656347 0.721462099270948 9.987016878058526e-05 9.987016878058526e-05 9.987016878058526e-05 9.987016878058526e-05 9.987016878058526e-05 9.987016878058526e-05 9.987016878058526e-05 9.987016878058526e-05 9.987016878058526e-05 9.987016878058526e-05;
    ( meldugm_state8 meldugsan_state9 fungicid_state1 ) 9.986019572598363e-05 9.986019572598363e-05 0.006191332135010985 0.9862192929898144 0.006191332135010985 9.986019572598363e-05 9.986019572598363e-05 9.986019572598363e-05 9.986019572598363e-05 9.986019572598363e-05 9.986019572598363e-05 9.986019572598363e-05 9.986019572598363e-05 9.986019572598363e-05 9.986019572598363e-05 9.986019572598363e-05 9.986019572598363e-05;
    ( meldugm_state8 meldugsan_state10 fungicid_state0 ) 9.987016878058526e-05 9.987016878058526e-05 0.006691301308299213 0.9865175272146212 0.005392989114151604 9.987016878058526e-05 9.987016878058526e-05 9.987016878058526e-05 9.987016878058526e-05 9.987016878058526e-05 9.987016878058526e-05 9.987016878058526e-05 9.987016878058526e-05 9.987016878058526e-05 9.987016878058526e-05 9.987016878058526e-05 9.987016878058526e-05;
    ( meldugm_state8 meldugsan_state10 fungicid_state1 ) 9.986019572598363e-05 9.986019572598363e-05 0.006191332135010985 0.9862192929898144 0.006191332135010985 9.986019572598363e-05 9.986019572598363e-05 9.986019572598363e-05 9.986019572598363e-05 9.986019572598363e-05 9.986019572598363e-05 9.986019572598363e-05 9.986019572598363e-05 9.986019572598363e-05 9.986019572598363e-05 9.986019572598363e-05 9.986019572598363e-05;
    ( meldugm_state9 meldugsan_state0 fungicid_state0 ) 9.987016878058524e-05 9.987016878058524e-05 9.987016878058524e-05 9.987016878058524e-05 9.987016878058524e-05 9.987016878058524e-05 9.987016878058524e-05 9.987016878058524e-05 0.001298312194147608 0.1328273244781784 0.7889743333666234 0.07560171776690303 9.987016878058524e-05 9.987016878058524e-05 9.987016878058524e-05 9.987016878058524e-05 9.987016878058524e-05;
    ( meldugm_state9 meldugsan_state0 fungicid_state1 ) 9.986019572598363e-05 9.986019572598363e-05 0.0003994407829039345 0.8650888755741962 0.1331136409027362 9.986019572598363e-05 9.986019572598363e-05 9.986019572598363e-05 9.986019572598363e-05 9.986019572598363e-05 9.986019572598363e-05 9.986019572598363e-05 9.986019572598363e-05 9.986019572598363e-05 9.986019572598363e-05 9.986019572598363e-05 9.986019572598363e-05;
    ( meldugm_state9 meldugsan_state1 fungicid_state0 ) 9.987016878058526e-05 9.987016878058526e-05 9.987016878058526e-05 9.987016878058526e-05 9.987016878058526e-05 9.987016878058526e-05 9.987016878058526e-05 9.987016878058526e-05 0.04464196544492161 0.6685309098172377 0.2853290722061321 0.0001997403375611705 9.987016878058526e-05 9.987016878058526e-05 9.987016878058526e-05 9.987016878058526e-05 9.987016878058526e-05;
    ( meldugm_state9 meldugsan_state1 fungicid_state1 ) 9.986019572598363e-05 9.986019572598363e-05 0.0003994407829039345 0.8650888755741962 0.1331136409027362 9.986019572598363e-05 9.986019572598363e-05 9.986019572598363e-05 9.986019572598363e-05 9.986019572598363e-05 9.986019572598363e-05 9.986019572598363e-05 9.986019572598363e-05 9.986019572598363e-05 9.986019572598363e-05 9.986019572598363e-05 9.986019572598363e-05;
    ( meldugm_state9 meldugsan_state2 fungicid_state0 ) 9.987016878058526e-05 9.987016878058526e-05 9.987016878058526e-05 9.987016878058526e-05 9.987016878058526e-05 9.987016878058526e-05 9.987016878058526e-05 0.0002996105063417558 0.1525017477279537 0.7688005592729453 0.07709977029861183 9.987016878058526e-05 9.987016878058526e-05 9.987016878058526e-05 9.987016878058526e-05 9.987016878058526e-05 9.987016878058526e-05;
    ( meldugm_state9 meldugsan_state2 fungicid_state1 ) 9.986019572598363e-05 9.986019572598363e-05 0.0003994407829039345 0.8650888755741962 0.1331136409027362 9.986019572598363e-05 9.986019572598363e-05 9.986019572598363e-05 9.986019572598363e-05 9.986019572598363e-05 9.986019572598363e-05 9.986019572598363e-05 9.986019572598363e-05 9.986019572598363e-05 9.986019572598363e-05 9.986019572598363e-05 9.986019572598363e-05;
    ( meldugm_state9 meldugsan_state3 fungicid_state0 ) 9.987016878058524e-05 9.987016878058524e-05 9.987016878058524e-05 9.987016878058524e-05 9.987016878058524e-05 9.987016878058524e-05 9.987016878058524e-05 0.001897533206831119 0.4068710676121042 0.5825426944971537 0.007390392489763308 9.987016878058524e-05 9.987016878058524e-05 9.987016878058524e-05 9.987016878058524e-05 9.987016878058524e-05 9.987016878058524e-05;
    ( meldugm_state9 meldugsan_state3 fungicid_state1 ) 9.986019572598363e-05 9.986019572598363e-05 0.0003994407829039345 0.8650888755741962 0.1331136409027362 9.986019572598363e-05 9.986019572598363e-05 9.986019572598363e-05 9.986019572598363e-05 9.986019572598363e-05 9.986019572598363e-05 9.986019572598363e-05 9.986019572598363e-05 9.986019572598363e-05 9.986019572598363e-05 9.986019572598363e-05 9.986019572598363e-05;
    ( meldugm_state9 meldugsan_state4 fungicid_state0 ) 9.987016878058526e-05 9.987016878058526e-05 9.987016878058526e-05 9.987016878058526e-05 9.987016878058526e-05 9.987016878058526e-05 9.987016878058526e-05 0.01368221312294018 0.7493258763607311 0.2355937281534006 9.987016878058526e-05 9.987016878058526e-05 9.987016878058526e-05 9.987016878058526e-05 9.987016878058526e-05 9.987016878058526e-05 9.987016878058526e-05;
    ( meldugm_state9 meldugsan_state4 fungicid_state1 ) 9.986019572598363e-05 9.986019572598363e-05 0.0003994407829039345 0.8650888755741962 0.1331136409027362 9.986019572598363e-05 9.986019572598363e-05 9.986019572598363e-05 9.986019572598363e-05 9.986019572598363e-05 9.986019572598363e-05 9.986019572598363e-05 9.986019572598363e-05 9.986019572598363e-05 9.986019572598363e-05 9.986019572598363e-05 9.986019572598363e-05;
    ( meldugm_state9 meldugsan_state5 fungicid_state0 ) 9.987016878058526e-05 9.987016878058526e-05 9.987016878058526e-05 9.987016878058526e-05 9.987016878058526e-05 9.987016878058526e-05 0.0001997403375611705 0.08568860481374214 0.8822530710076901 0.03056027164685909 9.987016878058526e-05 9.987016878058526e-05 9.987016878058526e-05 9.987016878058526e-05 9.987016878058526e-05 9.987016878058526e-05 9.987016878058526e-05;
    ( meldugm_state9 meldugsan_state5 fungicid_state1 ) 9.986019572598363e-05 9.986019572598363e-05 0.0003994407829039345 0.8650888755741962 0.1331136409027362 9.986019572598363e-05 9.986019572598363e-05 9.986019572598363e-05 9.986019572598363e-05 9.986019572598363e-05 9.986019572598363e-05 9.986019572598363e-05 9.986019572598363e-05 9.986019572598363e-05 9.986019572598363e-05 9.986019572598363e-05 9.986019572598363e-05;
    ( meldugm_state9 meldugsan_state6 fungicid_state0 ) 9.987016878058526e-05 9.987016878058526e-05 9.987016878058526e-05 9.987016878058526e-05 9.987016878058526e-05 9.987016878058526e-05 0.002996105063417558 0.3688205333067014 0.6263856985918307 0.0004993508439029262 9.987016878058526e-05 9.987016878058526e-05 9.987016878058526e-05 9.987016878058526e-05 9.987016878058526e-05 9.987016878058526e-05 9.987016878058526e-05;
